%YAML:1.0
---
opencv_ml_svm:
   format: 3
   svmType: C_SVC
   kernel:
      type: POLY
      degree: 4.9000000000000005e-01
      gamma: 1.5000000000000001e-04
      coef0: 2.7440000000000003e+02
   C: 5.0000000000000000e-01
   term_criteria: { epsilon:1.1920928955078125e-07, iterations:1000 }
   var_count: 2352
   class_count: 5
   class_labels: !!opencv-matrix
      rows: 5
      cols: 1
      dt: i
      data: [ 0, 1, 2, 3, 4 ]
   sv_total: 71
   support_vectors:
      - [ 0., 0., 0., 0., 0., 0., 1., 1., 1., 0., 0., 0., 6., 6., 6., 1.,
          1., 1., 0., 0., 0., 3., 3., 3., 0., 0., 0., 4., 4., 4., 0., 0.,
          0., 0., 0., 0., 1., 1., 1., 2., 2., 2., 0., 0., 0., 1., 1., 1.,
          0., 0., 0., 0., 0., 0., 2., 2., 2., 0., 0., 0., 3., 3., 3., 0.,
          0., 0., 1., 1., 1., 0., 0., 0., 0., 0., 0., 0., 0., 0., 0., 0.,
          0., 0., 0., 0., 1., 1., 1., 1., 1., 1., 0., 0., 0., 0., 0., 0.,
          0., 0., 0., 2., 2., 2., 0., 0., 0., 1., 1., 1., 2., 2., 2., 0.,
          0., 0., 1., 1., 1., 3., 3., 3., 0., 0., 0., 0., 0., 0., 0., 0.,
          0., 1., 1., 1., 0., 0., 0., 0., 0., 0., 0., 0., 0., 4., 4., 4.,
          0., 0., 0., 0., 0., 0., 1., 1., 1., 0., 0., 0., 0., 0., 0., 0.,
          0., 0., 0., 0., 0., 0., 0., 0., 0., 0., 0., 0., 0., 0., 0., 0.,
          0., 2., 2., 2., 2., 2., 2., 0., 0., 0., 5., 5., 5., 0., 0., 0.,
          3., 3., 3., 0., 0., 0., 1., 1., 1., 0., 0., 0., 0., 0., 0., 2.,
          2., 2., 2., 2., 2., 1., 1., 1., 1., 1., 1., 3., 3., 3., 0., 0.,
          0., 0., 0., 0., 0., 0., 0., 4., 4., 4., 0., 0., 0., 2., 2., 2.,
          0., 0., 0., 0., 0., 0., 0., 0., 0., 0., 0., 0., 0., 0., 0., 1.,
          1., 1., 0., 0., 0., 1., 1., 1., 6., 6., 6., 0., 0., 0., 2., 2.,
          2., 0., 0., 0., 0., 0., 0., 3., 3., 3., 0., 0., 0., 254., 254.,
          254., 0., 0., 0., 0., 0., 0., 3., 3., 3., 0., 0., 0., 0., 0.,
          0., 0., 0., 0., 5., 5., 5., 1., 1., 1., 0., 0., 0., 0., 0., 0.,
          1., 1., 1., 1., 1., 1., 0., 0., 0., 0., 0., 0., 0., 0., 0., 0.,
          0., 0., 2., 2., 2., 0., 0., 0., 4., 4., 4., 0., 0., 0., 0., 0.,
          0., 0., 0., 0., 0., 0., 0., 4., 4., 4., 255., 255., 255., 255.,
          255., 255., 248., 248., 248., 255., 255., 255., 3., 3., 3., 0.,
          0., 0., 251., 251., 251., 255., 255., 255., 4., 4., 4., 4., 4.,
          4., 0., 0., 0., 3., 3., 3., 0., 0., 0., 0., 0., 0., 0., 0., 0.,
          1., 1., 1., 0., 0., 0., 0., 0., 0., 0., 0., 0., 0., 0., 0., 0.,
          0., 0., 0., 0., 0., 0., 0., 0., 1., 1., 1., 6., 6., 6., 0., 0.,
          0., 255., 255., 255., 253., 253., 253., 255., 255., 255., 3.,
          3., 3., 5., 5., 5., 0., 0., 0., 0., 0., 0., 0., 0., 0., 3., 3.,
          3., 0., 0., 0., 255., 255., 255., 0., 0., 0., 0., 0., 0., 1.,
          1., 1., 0., 0., 0., 2., 2., 2., 0., 0., 0., 0., 0., 0., 0., 0.,
          0., 0., 0., 0., 0., 0., 0., 0., 0., 0., 0., 0., 0., 4., 4., 4.,
          0., 0., 0., 0., 0., 0., 0., 0., 0., 253., 253., 253., 255.,
          255., 255., 0., 0., 0., 0., 0., 0., 0., 0., 0., 0., 0., 0., 0.,
          0., 0., 4., 4., 4., 1., 1., 1., 1., 1., 1., 0., 0., 0., 255.,
          255., 255., 1., 1., 1., 3., 3., 3., 0., 0., 0., 1., 1., 1., 0.,
          0., 0., 0., 0., 0., 0., 0., 0., 0., 0., 0., 0., 0., 0., 0., 0.,
          0., 0., 0., 0., 1., 1., 1., 0., 0., 0., 0., 0., 0., 1., 1., 1.,
          2., 2., 2., 255., 255., 255., 0., 0., 0., 3., 3., 3., 2., 2.,
          2., 0., 0., 0., 3., 3., 3., 2., 2., 2., 0., 0., 0., 3., 3., 3.,
          1., 1., 1., 1., 1., 1., 255., 255., 255., 254., 254., 254., 0.,
          0., 0., 3., 3., 3., 0., 0., 0., 0., 0., 0., 3., 3., 3., 0., 0.,
          0., 0., 0., 0., 0., 0., 0., 0., 0., 0., 0., 0., 0., 0., 0., 0.,
          0., 0., 0., 0., 0., 0., 0., 0., 0., 0., 0., 0., 0., 0., 0., 0.,
          0., 0., 0., 0., 0., 4., 4., 4., 0., 0., 0., 1., 1., 1., 2., 2.,
          2., 0., 0., 0., 0., 0., 0., 0., 0., 0., 1., 1., 1., 255., 255.,
          255., 0., 0., 0., 0., 0., 0., 1., 1., 1., 0., 0., 0., 0., 0.,
          0., 0., 0., 0., 2., 2., 2., 0., 0., 0., 0., 0., 0., 0., 0., 0.,
          0., 0., 0., 0., 0., 0., 0., 0., 0., 0., 0., 0., 0., 0., 0., 1.,
          1., 1., 1., 1., 1., 1., 1., 1., 1., 1., 1., 0., 0., 0., 3., 3.,
          3., 0., 0., 0., 0., 0., 0., 0., 0., 0., 2., 2., 2., 0., 0., 0.,
          255., 255., 255., 254., 254., 254., 0., 0., 0., 5., 5., 5., 0.,
          0., 0., 0., 0., 0., 0., 0., 0., 5., 5., 5., 0., 0., 0., 0., 0.,
          0., 0., 0., 0., 0., 0., 0., 0., 0., 0., 0., 0., 0., 0., 0., 0.,
          0., 0., 0., 0., 0., 0., 1., 1., 1., 1., 1., 1., 2., 2., 2., 2.,
          2., 2., 5., 5., 5., 0., 0., 0., 5., 5., 5., 2., 2., 2., 2., 2.,
          2., 0., 0., 0., 254., 254., 254., 254., 254., 254., 0., 0., 0.,
          3., 3., 3., 0., 0., 0., 1., 1., 1., 2., 2., 2., 0., 0., 0., 0.,
          0., 0., 3., 3., 3., 0., 0., 0., 0., 0., 0., 0., 0., 0., 0., 0.,
          0., 0., 0., 0., 0., 0., 0., 0., 0., 0., 0., 0., 0., 1., 1., 1.,
          1., 1., 1., 2., 2., 2., 2., 2., 2., 0., 0., 0., 0., 0., 0., 2.,
          2., 2., 0., 0., 0., 0., 0., 0., 1., 1., 1., 255., 255., 255.,
          1., 1., 1., 0., 0., 0., 4., 4., 4., 2., 2., 2., 0., 0., 0., 2.,
          2., 2., 0., 0., 0., 0., 0., 0., 0., 0., 0., 0., 0., 0., 0., 0.,
          0., 0., 0., 0., 0., 0., 0., 0., 0., 0., 0., 0., 0., 0., 0., 0.,
          0., 0., 0., 0., 0., 0., 1., 1., 1., 1., 1., 1., 1., 1., 1., 3.,
          3., 3., 2., 2., 2., 0., 0., 0., 0., 0., 0., 6., 6., 6., 251.,
          251., 251., 0., 0., 0., 3., 3., 3., 1., 1., 1., 0., 0., 0., 0.,
          0., 0., 5., 5., 5., 0., 0., 0., 0., 0., 0., 4., 4., 4., 1., 1.,
          1., 0., 0., 0., 0., 0., 0., 0., 0., 0., 0., 0., 0., 0., 0., 0.,
          0., 0., 0., 0., 0., 0., 0., 0., 0., 0., 0., 0., 0., 0., 0., 0.,
          0., 0., 0., 0., 0., 0., 0., 0., 3., 3., 3., 0., 0., 0., 2., 2.,
          2., 255., 255., 255., 0., 0., 0., 3., 3., 3., 0., 0., 0., 3.,
          3., 3., 1., 1., 1., 2., 2., 2., 1., 1., 1., 0., 0., 0., 0., 0.,
          0., 0., 0., 0., 0., 0., 0., 0., 0., 0., 0., 0., 0., 0., 0., 0.,
          0., 0., 0., 0., 0., 0., 0., 0., 0., 0., 0., 0., 0., 0., 0., 0.,
          0., 0., 0., 0., 0., 0., 0., 0., 0., 0., 0., 3., 3., 3., 3., 3.,
          3., 2., 2., 2., 251., 251., 251., 249., 249., 249., 7., 7., 7.,
          0., 0., 0., 0., 0., 0., 1., 1., 1., 0., 0., 0., 0., 0., 0., 3.,
          3., 3., 0., 0., 0., 0., 0., 0., 2., 2., 2., 3., 3., 3., 0., 0.,
          0., 0., 0., 0., 0., 0., 0., 0., 0., 0., 0., 0., 0., 0., 0., 0.,
          0., 0., 0., 0., 0., 0., 0., 0., 0., 0., 0., 0., 0., 0., 0., 0.,
          0., 0., 2., 2., 2., 0., 0., 0., 254., 254., 254., 2., 2., 2.,
          2., 2., 2., 0., 0., 0., 0., 0., 0., 1., 1., 1., 4., 4., 4., 0.,
          0., 0., 3., 3., 3., 0., 0., 0., 0., 0., 0., 1., 1., 1., 0., 0.,
          0., 0., 0., 0., 0., 0., 0., 0., 0., 0., 0., 0., 0., 0., 0., 0.,
          0., 0., 0., 2., 2., 2., 0., 0., 0., 0., 0., 0., 2., 2., 2., 3.,
          3., 3., 0., 0., 0., 0., 0., 0., 3., 3., 3., 255., 255., 255.,
          251., 251., 251., 0., 0., 0., 1., 1., 1., 0., 0., 0., 2., 2.,
          2., 2., 2., 2., 0., 0., 0., 1., 1., 1., 0., 0., 0., 1., 1., 1.,
          0., 0., 0., 0., 0., 0., 3., 3., 3., 0., 0., 0., 0., 0., 0., 0.,
          0., 0., 0., 0., 0., 0., 0., 0., 0., 0., 0., 0., 0., 0., 5., 5.,
          5., 0., 0., 0., 0., 0., 0., 0., 0., 0., 1., 1., 1., 255., 255.,
          255., 253., 253., 253., 254., 254., 254., 1., 1., 1., 3., 3.,
          3., 0., 0., 0., 5., 5., 5., 0., 0., 0., 1., 1., 1., 3., 3., 3.,
          0., 0., 0., 5., 5., 5., 0., 0., 0., 2., 2., 2., 5., 5., 5., 0.,
          0., 0., 0., 0., 0., 0., 0., 0., 0., 0., 0., 0., 0., 0., 0., 0.,
          0., 2., 2., 2., 0., 0., 0., 0., 0., 0., 3., 3., 3., 0., 0., 0.,
          253., 253., 253., 253., 253., 253., 250., 250., 250., 255.,
          255., 255., 4., 4., 4., 1., 1., 1., 255., 255., 255., 254.,
          254., 254., 255., 255., 255., 255., 255., 255., 253., 253.,
          253., 253., 253., 253., 255., 255., 255., 0., 0., 0., 0., 0.,
          0., 0., 0., 0., 0., 0., 0., 0., 0., 0., 2., 2., 2., 0., 0., 0.,
          0., 0., 0., 0., 0., 0., 0., 0., 0., 0., 0., 0., 0., 0., 0., 3.,
          3., 3., 0., 0., 0., 0., 0., 0., 254., 254., 254., 255., 255.,
          255., 254., 254., 254., 255., 255., 255., 254., 254., 254.,
          254., 254., 254., 253., 253., 253., 0., 0., 0., 0., 0., 0., 2.,
          2., 2., 0., 0., 0., 2., 2., 2., 7., 7., 7., 0., 0., 0., 3., 3.,
          3., 1., 1., 1., 2., 2., 2., 0., 0., 0., 0., 0., 0., 0., 0., 0.,
          0., 0., 0., 0., 0., 0., 0., 0., 0., 2., 2., 2., 0., 0., 0., 0.,
          0., 0., 1., 1., 1., 0., 0., 0., 0., 0., 0., 1., 1., 1., 0., 0.,
          0., 0., 0., 0., 0., 0., 0., 4., 4., 4., 5., 5., 5., 2., 2., 2.,
          3., 3., 3., 2., 2., 2., 0., 0., 0., 0., 0., 0., 0., 0., 0., 0.,
          0., 0., 2., 2., 2., 0., 0., 0., 0., 0., 0., 2., 2., 2., 0., 0.,
          0., 0., 0., 0., 0., 0., 0., 0., 0., 0., 0., 0., 0., 0., 0., 0.,
          1., 1., 1., 1., 1., 1., 0., 0., 0., 2., 2., 2., 4., 4., 4., 2.,
          2., 2., 1., 1., 1., 1., 1., 1., 0., 0., 0., 0., 0., 0., 0., 0.,
          0., 2., 2., 2., 0., 0., 0., 0., 0., 0., 1., 1., 1., 4., 4., 4.,
          4., 4., 4., 0., 0., 0., 0., 0., 0., 1., 1., 1., 0., 0., 0., 0.,
          0., 0., 0., 0., 0., 0., 0., 0., 0., 0., 0., 0., 0., 0., 0., 0.,
          0., 5., 5., 5., 0., 0., 0., 0., 0., 0., 1., 1., 1., 5., 5., 5.,
          0., 0., 0., 1., 1., 1., 0., 0., 0., 0., 0., 0., 2., 2., 2., 2.,
          2., 2., 5., 5., 5., 0., 0., 0., 7., 7., 7., 0., 0., 0., 3., 3.,
          3., 0., 0., 0., 3., 3., 3., 0., 0., 0., 0., 0., 0., 0., 0., 0.,
          2., 2., 2., 0., 0., 0., 3., 3., 3., 0., 0., 0., 0., 0., 0., 0.,
          0., 0., 0., 0., 0., 0., 0., 0., 3., 3., 3., 1., 1., 1., 0., 0.,
          0., 2., 2., 2., 0., 0., 0., 3., 3., 3., 1., 1., 1., 0., 0., 0.,
          1., 1., 1., 0., 0., 0., 0., 0., 0., 2., 2., 2., 0., 0., 0., 3.,
          3., 3., 1., 1., 1., 0., 0., 0., 0., 0., 0., 1., 1., 1., 1., 1.,
          1., 1., 1., 1., 0., 0., 0., 1., 1., 1., 0., 0., 0., 0., 0., 0.,
          0., 0., 0., 0., 0., 0., 0., 0., 0., 0., 0., 0., 0., 0., 0., 0.,
          0., 0., 0., 0., 0., 0., 0., 0., 0., 0., 0., 0., 0., 0., 0., 0.,
          0., 0., 0., 0., 0., 0., 0., 0., 0., 0., 0., 0., 0., 0., 0., 0.,
          0., 0., 0., 0., 0., 0., 0., 0., 0., 0., 0., 0., 0., 0., 0., 0.,
          0., 0., 0., 0., 0., 0., 0., 0., 0., 0., 0., 0., 0., 0., 0., 0.,
          0., 0., 0., 0., 0., 0., 0., 0., 0., 0., 0., 0., 0., 0., 0., 0.,
          0., 0., 0., 0., 0., 0., 0., 0., 0., 0., 0., 0., 0., 0., 0., 0.,
          0., 0., 0., 0., 0., 0., 0., 0., 0., 0., 0., 0., 0., 0., 0., 0.,
          0., 0., 0., 0., 0., 0., 0., 0., 0., 0., 0., 0., 0., 0., 0., 0.,
          0., 0., 0., 0., 0., 0., 0., 0., 0., 0., 0., 0., 0., 0., 0., 0.,
          0., 0., 0., 0., 0., 0., 0., 0., 0., 0., 0., 0., 0., 0., 0., 0.,
          0., 0., 0., 0., 0., 0., 0., 0., 0., 0., 0., 0., 0., 0., 0., 0.,
          0., 0., 0., 0., 0., 0., 0., 0., 0., 0., 0., 0., 0., 0., 0., 0.,
          0., 0., 0., 0., 0., 0., 0., 0., 0., 0., 0., 0., 0., 0., 0., 0.,
          0., 0., 0., 0., 0., 0., 0., 0., 0., 0., 0., 0., 0., 0., 0., 0.,
          0., 0., 0., 0., 0., 0., 0., 0., 0., 0., 0., 0., 0., 0., 0., 0.,
          0., 0., 0., 0., 0., 0., 0., 0., 0., 0., 0., 0., 0., 0., 0., 0.,
          0., 0., 0., 0., 0., 0., 0., 0., 0., 0., 0., 0., 0., 0., 0., 0.,
          0., 0., 0., 0., 0., 0., 0., 0., 0., 0., 0., 0., 0., 0., 0., 0.,
          0., 0., 0., 0., 0., 0., 0., 0., 0., 0., 0., 0., 0., 0., 0., 0.,
          0., 0., 0., 0., 0., 0., 0., 0., 0., 0., 0., 0., 0., 0., 0., 0.,
          0., 0., 0., 0., 0., 0., 0., 0., 0. ]
      - [ 0., 0., 0., 0., 0., 0., 0., 0., 0., 0., 0., 0., 0., 0., 0., 0.,
          0., 0., 0., 0., 0., 0., 0., 0., 0., 0., 0., 1., 1., 1., 0., 0.,
          0., 1., 1., 1., 0., 0., 0., 0., 0., 0., 0., 0., 0., 1., 1., 1.,
          0., 0., 0., 0., 0., 0., 1., 1., 1., 0., 0., 0., 1., 1., 1., 1.,
          1., 1., 1., 1., 1., 0., 0., 0., 0., 0., 0., 0., 0., 0., 0., 0.,
          0., 0., 0., 0., 0., 0., 0., 0., 0., 0., 0., 0., 0., 0., 0., 0.,
          0., 0., 0., 0., 0., 0., 0., 0., 0., 0., 0., 0., 0., 0., 0., 4.,
          4., 4., 1., 1., 1., 0., 0., 0., 0., 0., 0., 0., 0., 0., 1., 1.,
          1., 0., 0., 0., 1., 1., 1., 2., 2., 2., 0., 0., 0., 0., 0., 0.,
          0., 0., 0., 0., 0., 0., 0., 0., 0., 0., 0., 0., 0., 0., 0., 0.,
          0., 0., 0., 0., 0., 0., 0., 0., 0., 0., 0., 0., 0., 0., 0., 0.,
          0., 0., 0., 0., 0., 0., 0., 0., 0., 0., 0., 0., 0., 0., 0., 0.,
          1., 1., 1., 0., 0., 0., 0., 0., 0., 0., 0., 0., 255., 255.,
          255., 3., 3., 3., 0., 0., 0., 0., 0., 0., 0., 0., 0., 2., 2.,
          2., 1., 1., 1., 0., 0., 0., 2., 2., 2., 1., 1., 1., 2., 2., 2.,
          0., 0., 0., 0., 0., 0., 0., 0., 0., 0., 0., 0., 0., 0., 0., 0.,
          0., 0., 0., 0., 0., 0., 0., 0., 0., 0., 0., 0., 0., 0., 0., 0.,
          0., 0., 0., 0., 0., 0., 0., 0., 0., 0., 2., 2., 2., 1., 1., 1.,
          255., 255., 255., 255., 255., 255., 0., 0., 0., 3., 3., 3., 0.,
          0., 0., 0., 0., 0., 0., 0., 0., 2., 2., 2., 0., 0., 0., 0., 0.,
          0., 0., 0., 0., 0., 0., 0., 255., 255., 255., 0., 0., 0., 0.,
          0., 0., 0., 0., 0., 0., 0., 0., 0., 0., 0., 0., 0., 0., 0., 0.,
          0., 0., 0., 0., 0., 0., 0., 0., 0., 0., 0., 0., 0., 0., 0., 0.,
          0., 0., 0., 0., 0., 0., 0., 0., 0., 255., 255., 255., 253.,
          253., 253., 1., 1., 1., 0., 0., 0., 3., 3., 3., 3., 3., 3., 0.,
          0., 0., 0., 0., 0., 2., 2., 2., 1., 1., 1., 0., 0., 0., 4., 4.,
          4., 252., 252., 252., 0., 0., 0., 0., 0., 0., 0., 0., 0., 0.,
          0., 0., 0., 0., 0., 0., 0., 0., 0., 0., 0., 0., 0., 0., 0., 0.,
          0., 0., 0., 0., 0., 0., 0., 0., 0., 0., 2., 2., 2., 0., 0., 0.,
          0., 0., 0., 0., 0., 0., 255., 255., 255., 0., 0., 0., 3., 3.,
          3., 0., 0., 0., 0., 0., 0., 5., 5., 5., 0., 0., 0., 4., 4., 4.,
          0., 0., 0., 0., 0., 0., 1., 1., 1., 255., 255., 255., 0., 0.,
          0., 0., 0., 0., 0., 0., 0., 0., 0., 0., 0., 0., 0., 0., 0., 0.,
          0., 0., 0., 0., 0., 0., 0., 0., 0., 0., 0., 0., 0., 0., 0., 0.,
          0., 0., 0., 0., 0., 0., 0., 0., 0., 0., 0., 1., 1., 1., 255.,
          255., 255., 0., 0., 0., 2., 2., 2., 0., 0., 0., 1., 1., 1., 0.,
          0., 0., 2., 2., 2., 0., 0., 0., 2., 2., 2., 1., 1., 1., 0., 0.,
          0., 255., 255., 255., 0., 0., 0., 0., 0., 0., 0., 0., 0., 0.,
          0., 0., 0., 0., 0., 0., 0., 0., 0., 0., 0., 0., 0., 0., 0., 0.,
          0., 0., 0., 0., 0., 0., 0., 0., 0., 0., 1., 1., 1., 0., 0., 0.,
          1., 1., 1., 253., 253., 253., 254., 254., 254., 2., 2., 2., 0.,
          0., 0., 2., 2., 2., 1., 1., 1., 0., 0., 0., 0., 0., 0., 1., 1.,
          1., 1., 1., 1., 0., 0., 0., 0., 0., 0., 255., 255., 255., 0.,
          0., 0., 0., 0., 0., 0., 0., 0., 0., 0., 0., 0., 0., 0., 0., 0.,
          0., 0., 0., 0., 0., 0., 0., 0., 0., 0., 0., 0., 0., 0., 0., 0.,
          0., 0., 0., 1., 1., 1., 0., 0., 0., 2., 2., 2., 255., 255.,
          255., 253., 253., 253., 1., 1., 1., 2., 2., 2., 0., 0., 0., 0.,
          0., 0., 0., 0., 0., 0., 0., 0., 3., 3., 3., 0., 0., 0., 0., 0.,
          0., 1., 1., 1., 255., 255., 255., 0., 0., 0., 0., 0., 0., 0.,
          0., 0., 0., 0., 0., 0., 0., 0., 0., 0., 0., 0., 0., 0., 0., 0.,
          0., 0., 0., 0., 0., 0., 0., 0., 0., 0., 0., 0., 0., 0., 0., 0.,
          2., 2., 2., 0., 0., 0., 252., 252., 252., 255., 255., 255., 0.,
          0., 0., 0., 0., 0., 1., 1., 1., 0., 0., 0., 5., 5., 5., 0., 0.,
          0., 1., 1., 1., 3., 3., 3., 1., 1., 1., 0., 0., 0., 255., 255.,
          255., 0., 0., 0., 0., 0., 0., 0., 0., 0., 0., 0., 0., 0., 0.,
          0., 0., 0., 0., 0., 0., 0., 0., 0., 0., 0., 0., 0., 0., 0., 0.,
          0., 0., 0., 0., 0., 0., 2., 2., 2., 0., 0., 0., 1., 1., 1.,
          255., 255., 255., 253., 253., 253., 0., 0., 0., 0., 0., 0., 2.,
          2., 2., 2., 2., 2., 0., 0., 0., 0., 0., 0., 0., 0., 0., 0., 0.,
          0., 0., 0., 0., 0., 0., 0., 254., 254., 254., 0., 0., 0., 0.,
          0., 0., 0., 0., 0., 0., 0., 0., 0., 0., 0., 0., 0., 0., 0., 0.,
          0., 0., 0., 0., 0., 0., 0., 0., 0., 0., 0., 0., 0., 0., 0., 0.,
          0., 0., 0., 1., 1., 1., 0., 0., 0., 252., 252., 252., 255.,
          255., 255., 1., 1., 1., 0., 0., 0., 0., 0., 0., 0., 0., 0., 0.,
          0., 0., 3., 3., 3., 0., 0., 0., 255., 255., 255., 253., 253.,
          253., 255., 255., 255., 255., 255., 255., 0., 0., 0., 0., 0.,
          0., 0., 0., 0., 0., 0., 0., 0., 0., 0., 0., 0., 0., 0., 0., 0.,
          0., 0., 0., 0., 0., 0., 0., 0., 0., 0., 0., 0., 0., 0., 0., 2.,
          2., 2., 1., 1., 1., 0., 0., 0., 1., 1., 1., 254., 254., 254.,
          255., 255., 255., 255., 255., 255., 255., 255., 255., 255.,
          255., 255., 252., 252., 252., 255., 255., 255., 255., 255.,
          255., 254., 254., 254., 2., 2., 2., 0., 0., 0., 0., 0., 0., 0.,
          0., 0., 0., 0., 0., 0., 0., 0., 0., 0., 0., 0., 0., 0., 0., 0.,
          0., 0., 0., 0., 0., 0., 0., 0., 0., 0., 0., 0., 0., 0., 0., 0.,
          0., 0., 0., 0., 0., 0., 0., 0., 0., 0., 0., 0., 3., 3., 3.,
          255., 255., 255., 0., 0., 0., 4., 4., 4., 0., 0., 0., 0., 0.,
          0., 0., 0., 0., 0., 0., 0., 1., 1., 1., 0., 0., 0., 0., 0., 0.,
          0., 0., 0., 1., 1., 1., 0., 0., 0., 0., 0., 0., 0., 0., 0., 0.,
          0., 0., 0., 0., 0., 0., 0., 0., 0., 0., 0., 0., 0., 0., 0., 0.,
          0., 0., 0., 0., 0., 0., 0., 0., 0., 0., 0., 0., 0., 0., 0., 0.,
          2., 2., 2., 0., 0., 0., 255., 255., 255., 0., 0., 0., 1., 1.,
          1., 2., 2., 2., 0., 0., 0., 1., 1., 1., 0., 0., 0., 0., 0., 0.,
          2., 2., 2., 0., 0., 0., 3., 3., 3., 0., 0., 0., 0., 0., 0., 0.,
          0., 0., 0., 0., 0., 0., 0., 0., 0., 0., 0., 0., 0., 0., 0., 0.,
          0., 0., 0., 0., 0., 0., 0., 0., 0., 0., 0., 0., 0., 0., 0., 0.,
          1., 1., 1., 0., 0., 0., 0., 0., 0., 0., 0., 0., 255., 255.,
          255., 2., 2., 2., 0., 0., 0., 0., 0., 0., 1., 1., 1., 0., 0.,
          0., 3., 3., 3., 0., 0., 0., 0., 0., 0., 1., 1., 1., 0., 0., 0.,
          0., 0., 0., 0., 0., 0., 0., 0., 0., 0., 0., 0., 0., 0., 0., 0.,
          0., 0., 0., 0., 0., 0., 0., 0., 0., 0., 0., 0., 0., 0., 0., 0.,
          0., 0., 0., 0., 0., 0., 0., 0., 0., 0., 0., 0., 0., 0., 0., 0.,
          1., 1., 1., 255., 255., 255., 0., 0., 0., 0., 0., 0., 0., 0.,
          0., 0., 0., 0., 0., 0., 0., 0., 0., 0., 0., 0., 0., 0., 0., 0.,
          0., 0., 0., 0., 0., 0., 0., 0., 0., 0., 0., 0., 0., 0., 0., 0.,
          0., 0., 0., 0., 0., 0., 0., 0., 0., 0., 0., 0., 0., 0., 0., 0.,
          0., 0., 0., 0., 0., 0., 0., 0., 0., 0., 0., 0., 0., 0., 0., 0.,
          1., 1., 1., 0., 0., 0., 0., 0., 0., 254., 254., 254., 0., 0.,
          0., 0., 0., 0., 1., 1., 1., 0., 0., 0., 0., 0., 0., 0., 0., 0.,
          0., 0., 0., 0., 0., 0., 0., 0., 0., 0., 0., 0., 0., 0., 0., 0.,
          0., 0., 0., 0., 0., 0., 0., 0., 0., 0., 0., 0., 0., 0., 0., 0.,
          0., 0., 0., 0., 0., 0., 0., 0., 0., 0., 0., 0., 0., 0., 0., 0.,
          0., 0., 0., 1., 1., 1., 0., 0., 0., 3., 3., 3., 2., 2., 2.,
          253., 253., 253., 3., 3., 3., 0., 0., 0., 0., 0., 0., 0., 0.,
          0., 0., 0., 0., 0., 0., 0., 0., 0., 0., 0., 0., 0., 0., 0., 0.,
          0., 0., 0., 0., 0., 0., 0., 0., 0., 0., 0., 0., 0., 0., 0., 0.,
          0., 0., 0., 0., 0., 0., 0., 0., 0., 0., 0., 0., 0., 0., 0., 0.,
          0., 0., 0., 0., 0., 0., 0., 0., 0., 0., 0., 0., 0., 1., 1., 1.,
          0., 0., 0., 1., 1., 1., 254., 254., 254., 1., 1., 1., 1., 1.,
          1., 0., 0., 0., 0., 0., 0., 0., 0., 0., 0., 0., 0., 0., 0., 0.,
          0., 0., 0., 0., 0., 0., 0., 0., 0., 0., 0., 0., 0., 0., 0., 0.,
          0., 0., 0., 0., 0., 0., 0., 0., 0., 0., 0., 0., 0., 0., 0., 0.,
          0., 0., 0., 0., 0., 0., 0., 0., 0., 0., 0., 0., 0., 0., 0., 0.,
          0., 0., 0., 0., 0., 0., 4., 4., 4., 255., 255., 255., 254.,
          254., 254., 0., 0., 0., 0., 0., 0., 0., 0., 0., 0., 0., 0., 0.,
          0., 0., 0., 0., 0., 0., 0., 0., 0., 0., 0., 0., 0., 0., 0., 0.,
          0., 0., 0., 0., 0., 0., 0., 0., 0., 0., 0., 0., 0., 0., 0., 0.,
          0., 0., 0., 0., 0., 0., 0., 0., 0., 0., 0., 0., 0., 0., 0., 0.,
          0., 0., 0., 0., 0., 0., 0., 0., 0., 0., 0., 2., 2., 2., 0., 0.,
          0., 255., 255., 255., 255., 255., 255., 0., 0., 0., 0., 0., 0.,
          1., 1., 1., 0., 0., 0., 0., 0., 0., 0., 0., 0., 0., 0., 0., 0.,
          0., 0., 0., 0., 0., 0., 0., 0., 0., 0., 0., 0., 0., 0., 0., 0.,
          0., 0., 0., 0., 0., 0., 0., 0., 0., 0., 0., 0., 0., 0., 0., 0.,
          0., 0., 0., 0., 0., 0., 0., 0., 0., 0., 0., 0., 0., 0., 0., 0.,
          0., 0., 0., 0., 0., 0., 0., 0., 3., 3., 3., 0., 0., 0., 0., 0.,
          0., 2., 2., 2., 0., 0., 0., 0., 0., 0., 0., 0., 0., 0., 0., 0.,
          0., 0., 0., 0., 0., 0., 0., 0., 0., 0., 0., 0., 0., 0., 0., 0.,
          0., 0., 0., 0., 0., 0., 0., 0., 0., 0., 0., 0., 0., 0., 0., 0.,
          0., 0., 0., 0., 0., 0., 0., 0., 0., 0., 0., 0., 0., 0., 0., 0.,
          0., 0., 0., 1., 1., 1., 0., 0., 0., 0., 0., 0., 1., 1., 1., 0.,
          0., 0., 1., 1., 1., 0., 0., 0., 0., 0., 0., 0., 0., 0., 0., 0.,
          0., 0., 0., 0., 0., 0., 0., 0., 0., 0., 0., 0., 0., 0., 0., 0.,
          0., 0., 0., 0., 0., 0., 0., 0., 0., 0., 0., 0., 0., 0., 0., 0.,
          0., 0., 0., 0., 0., 0., 0., 0., 0., 0., 0., 0., 0., 0., 0., 0.,
          0., 0., 0., 0., 0., 0., 0., 0., 0., 0., 0., 0., 0., 0., 0., 0.,
          0., 0., 0., 0., 0., 0., 0., 0., 0., 0., 0., 0., 0., 0., 0., 0.,
          0., 0., 0., 0., 0., 0., 0., 0., 0., 0., 0., 0., 0., 0., 0., 0.,
          0., 0., 0., 0., 0., 0., 0., 0., 0., 0., 0., 0., 0., 0., 0., 0.,
          0., 0., 0., 0., 0., 0., 0., 0., 0., 0., 0., 0., 0., 0., 0., 0.,
          0., 0., 0., 0., 0., 0., 0., 0., 0., 0., 0., 0., 0., 0., 0., 0.,
          0., 0., 0., 0., 0., 0., 0., 0., 0., 0., 0., 0., 0., 0., 0., 0.,
          0., 0., 0., 0., 0., 0., 0., 0., 0., 0., 0., 0., 0., 0., 0., 0.,
          0., 0., 0., 0., 0., 0., 0., 0., 0., 0., 0., 0., 0., 0., 0., 0.,
          0., 0., 0., 0., 0., 0., 0., 0., 0., 0., 0., 0., 0., 0., 0., 0.,
          0., 0., 0., 0., 0., 0., 0., 0., 0., 0., 0., 0., 0., 0., 0., 0.,
          0., 0., 0., 0., 0., 0., 0., 0., 0., 0., 0., 0., 0., 0., 0., 0.,
          0., 0., 0., 0., 0., 0., 0., 0., 0., 0., 0., 0., 0., 0., 0., 0.,
          0., 0., 0., 0., 0., 0., 0., 0., 0., 0., 0., 0., 0., 0., 0., 0.,
          0., 0., 0., 0., 0., 0., 0., 0., 0., 0., 0., 0., 0., 0., 0., 0.,
          0., 0., 0., 0., 0., 0., 0., 0., 0., 0., 0., 0., 0., 0., 0., 0.,
          0., 0., 0., 0., 0., 0., 0., 0., 0., 0., 0., 0., 0., 0., 0., 0.,
          0., 0., 0., 0., 0., 0., 0., 0., 0., 0., 0., 0., 0., 0., 0., 0.,
          0., 0., 0., 0., 0., 0., 0., 0., 0., 0., 0., 0., 0., 0., 0., 0.,
          0., 0., 0., 0., 0., 0., 0., 0., 0., 0., 0., 0., 0., 0., 0. ]
      - [ 1., 1., 1., 0., 0., 0., 0., 0., 0., 0., 0., 0., 3., 3., 3., 0.,
          0., 0., 0., 0., 0., 1., 1., 1., 0., 0., 0., 0., 0., 0., 2., 2.,
          2., 0., 0., 0., 0., 0., 0., 1., 1., 1., 0., 0., 0., 0., 0., 0.,
          0., 0., 0., 0., 0., 0., 0., 0., 0., 0., 0., 0., 0., 0., 0., 0.,
          0., 0., 0., 0., 0., 0., 0., 0., 0., 0., 0., 0., 0., 0., 0., 0.,
          0., 0., 0., 0., 1., 1., 1., 0., 0., 0., 0., 0., 0., 0., 0., 0.,
          0., 0., 0., 0., 0., 0., 3., 3., 3., 0., 0., 0., 1., 1., 1., 0.,
          0., 0., 0., 0., 0., 1., 1., 1., 0., 0., 0., 2., 2., 2., 0., 0.,
          0., 2., 2., 2., 0., 0., 0., 0., 0., 0., 0., 0., 0., 0., 0., 0.,
          0., 0., 0., 0., 0., 0., 0., 0., 0., 0., 0., 0., 0., 0., 0., 0.,
          0., 0., 0., 0., 0., 0., 0., 0., 0., 0., 0., 3., 3., 3., 3., 3.,
          3., 1., 1., 1., 0., 0., 0., 1., 1., 1., 0., 0., 0., 1., 1., 1.,
          0., 0., 0., 3., 3., 3., 0., 0., 0., 4., 4., 4., 2., 2., 2., 0.,
          0., 0., 0., 0., 0., 0., 0., 0., 0., 0., 0., 0., 0., 0., 0., 0.,
          0., 0., 0., 0., 0., 0., 0., 0., 0., 0., 0., 0., 0., 0., 0., 0.,
          0., 0., 0., 0., 0., 0., 0., 0., 0., 0., 0., 0., 3., 3., 3., 0.,
          0., 0., 0., 0., 0., 0., 0., 0., 1., 1., 1., 0., 0., 0., 4., 4.,
          4., 253., 253., 253., 255., 255., 255., 254., 254., 254., 255.,
          255., 255., 2., 2., 2., 0., 0., 0., 2., 2., 2., 1., 1., 1., 3.,
          3., 3., 0., 0., 0., 0., 0., 0., 0., 0., 0., 0., 0., 0., 0., 0.,
          0., 0., 0., 0., 0., 0., 0., 0., 0., 0., 0., 0., 0., 0., 0., 0.,
          0., 0., 0., 0., 0., 0., 0., 0., 0., 0., 0., 0., 1., 1., 1., 1.,
          1., 1., 0., 0., 0., 0., 0., 0., 0., 0., 0., 0., 0., 0., 0., 0.,
          0., 0., 0., 0., 1., 1., 1., 255., 255., 255., 0., 0., 0., 1.,
          1., 1., 0., 0., 0., 0., 0., 0., 0., 0., 0., 0., 0., 0., 0., 0.,
          0., 0., 0., 0., 0., 0., 0., 0., 0., 0., 0., 0., 0., 0., 0., 0.,
          0., 0., 0., 0., 0., 0., 0., 0., 0., 0., 0., 0., 0., 0., 0., 5.,
          5., 5., 0., 0., 0., 1., 1., 1., 0., 0., 0., 0., 0., 0., 4., 4.,
          4., 0., 0., 0., 2., 2., 2., 0., 0., 0., 0., 0., 0., 0., 0., 0.,
          255., 255., 255., 1., 1., 1., 0., 0., 0., 3., 3., 3., 0., 0.,
          0., 0., 0., 0., 0., 0., 0., 0., 0., 0., 0., 0., 0., 0., 0., 0.,
          0., 0., 0., 0., 0., 0., 0., 0., 0., 0., 0., 0., 0., 0., 0., 0.,
          0., 0., 1., 1., 1., 0., 0., 0., 0., 0., 0., 0., 0., 0., 2., 2.,
          2., 0., 0., 0., 0., 0., 0., 1., 1., 1., 0., 0., 0., 2., 2., 2.,
          0., 0., 0., 0., 0., 0., 253., 253., 253., 1., 1., 1., 0., 0.,
          0., 0., 0., 0., 0., 0., 0., 0., 0., 0., 0., 0., 0., 0., 0., 0.,
          0., 0., 0., 0., 0., 0., 0., 0., 0., 0., 0., 0., 0., 0., 0., 0.,
          0., 0., 0., 0., 0., 0., 0., 0., 0., 0., 0., 0., 0., 0., 0., 0.,
          0., 1., 1., 1., 0., 0., 0., 0., 0., 0., 0., 0., 0., 0., 0., 0.,
          1., 1., 1., 0., 0., 0., 4., 4., 4., 0., 0., 0., 255., 255.,
          255., 0., 0., 0., 1., 1., 1., 0., 0., 0., 0., 0., 0., 0., 0.,
          0., 0., 0., 0., 0., 0., 0., 0., 0., 0., 0., 0., 0., 0., 0., 0.,
          0., 0., 0., 0., 0., 0., 0., 0., 0., 0., 0., 0., 0., 0., 0., 0.,
          0., 0., 1., 1., 1., 0., 0., 0., 0., 0., 0., 1., 1., 1., 0., 0.,
          0., 0., 0., 0., 1., 1., 1., 1., 1., 1., 0., 0., 0., 4., 4., 4.,
          0., 0., 0., 255., 255., 255., 0., 0., 0., 0., 0., 0., 1., 1.,
          1., 0., 0., 0., 0., 0., 0., 0., 0., 0., 0., 0., 0., 0., 0., 0.,
          0., 0., 0., 0., 0., 0., 0., 0., 0., 0., 0., 0., 0., 0., 0., 0.,
          0., 0., 0., 0., 0., 0., 0., 0., 0., 0., 0., 2., 2., 2., 0., 0.,
          0., 2., 2., 2., 4., 4., 4., 1., 1., 1., 0., 0., 0., 254., 254.,
          254., 255., 255., 255., 254., 254., 254., 254., 254., 254.,
          255., 255., 255., 2., 2., 2., 0., 0., 0., 1., 1., 1., 0., 0.,
          0., 0., 0., 0., 0., 0., 0., 0., 0., 0., 0., 0., 0., 0., 0., 0.,
          0., 0., 0., 0., 0., 0., 0., 0., 0., 0., 0., 0., 0., 0., 0., 0.,
          0., 0., 1., 1., 1., 0., 0., 0., 4., 4., 4., 0., 0., 0., 0., 0.,
          0., 0., 0., 0., 0., 0., 0., 255., 255., 255., 255., 255., 255.,
          255., 255., 255., 255., 255., 255., 255., 255., 255., 255.,
          255., 255., 252., 252., 252., 0., 0., 0., 0., 0., 0., 0., 0.,
          0., 0., 0., 0., 0., 0., 0., 0., 0., 0., 0., 0., 0., 0., 0., 0.,
          0., 0., 0., 0., 0., 0., 0., 0., 0., 0., 0., 0., 0., 0., 0., 0.,
          0., 0., 0., 0., 0., 3., 3., 3., 0., 0., 0., 0., 0., 0., 4., 4.,
          4., 4., 4., 4., 0., 0., 0., 1., 1., 1., 0., 0., 0., 1., 1., 1.,
          0., 0., 0., 0., 0., 0., 0., 0., 0., 255., 255., 255., 0., 0.,
          0., 2., 2., 2., 0., 0., 0., 0., 0., 0., 0., 0., 0., 0., 0., 0.,
          0., 0., 0., 0., 0., 0., 0., 0., 0., 0., 0., 0., 0., 0., 0., 0.,
          0., 0., 0., 0., 0., 0., 0., 0., 1., 1., 1., 0., 0., 0., 0., 0.,
          0., 2., 2., 2., 0., 0., 0., 0., 0., 0., 0., 0., 0., 0., 0., 0.,
          1., 1., 1., 0., 0., 0., 0., 0., 0., 2., 2., 2., 2., 2., 2.,
          252., 252., 252., 1., 1., 1., 0., 0., 0., 0., 0., 0., 0., 0.,
          0., 0., 0., 0., 0., 0., 0., 0., 0., 0., 0., 0., 0., 0., 0., 0.,
          0., 0., 0., 0., 0., 0., 0., 0., 0., 0., 0., 0., 0., 0., 0., 0.,
          0., 0., 0., 0., 0., 2., 2., 2., 3., 3., 3., 0., 0., 0., 2., 2.,
          2., 1., 1., 1., 0., 0., 0., 0., 0., 0., 1., 1., 1., 2., 2., 2.,
          0., 0., 0., 0., 0., 0., 255., 255., 255., 0., 0., 0., 2., 2.,
          2., 0., 0., 0., 0., 0., 0., 0., 0., 0., 0., 0., 0., 0., 0., 0.,
          0., 0., 0., 0., 0., 0., 0., 0., 0., 0., 0., 0., 0., 0., 0., 0.,
          0., 0., 0., 0., 0., 0., 0., 0., 1., 1., 1., 0., 0., 0., 0., 0.,
          0., 0., 0., 0., 0., 0., 0., 1., 1., 1., 255., 255., 255., 3.,
          3., 3., 0., 0., 0., 0., 0., 0., 1., 1., 1., 254., 254., 254.,
          0., 0., 0., 0., 0., 0., 0., 0., 0., 0., 0., 0., 0., 0., 0., 0.,
          0., 0., 0., 0., 0., 0., 0., 0., 0., 0., 0., 0., 0., 0., 0., 0.,
          0., 0., 0., 0., 0., 0., 0., 0., 0., 0., 0., 0., 0., 0., 0., 0.,
          1., 1., 1., 0., 0., 0., 0., 0., 0., 2., 2., 2., 0., 0., 0.,
          255., 255., 255., 255., 255., 255., 0., 0., 0., 1., 1., 1., 0.,
          0., 0., 255., 255., 255., 255., 255., 255., 0., 0., 0., 2., 2.,
          2., 0., 0., 0., 0., 0., 0., 0., 0., 0., 0., 0., 0., 0., 0., 0.,
          0., 0., 0., 0., 0., 0., 0., 0., 0., 0., 0., 0., 0., 0., 0., 0.,
          0., 0., 0., 0., 0., 0., 0., 0., 1., 1., 1., 0., 0., 0., 0., 0.,
          0., 1., 1., 1., 0., 0., 0., 0., 0., 0., 255., 255., 255., 255.,
          255., 255., 255., 255., 255., 254., 254., 254., 255., 255.,
          255., 0., 0., 0., 0., 0., 0., 0., 0., 0., 3., 3., 3., 0., 0.,
          0., 0., 0., 0., 0., 0., 0., 0., 0., 0., 0., 0., 0., 0., 0., 0.,
          0., 0., 0., 0., 0., 0., 0., 0., 0., 0., 0., 0., 0., 0., 0., 0.,
          0., 0., 0., 0., 0., 0., 0., 0., 2., 2., 2., 0., 0., 0., 0., 0.,
          0., 7., 7., 7., 0., 0., 0., 0., 0., 0., 0., 0., 0., 1., 1., 1.,
          1., 1., 1., 0., 0., 0., 0., 0., 0., 1., 1., 1., 0., 0., 0., 0.,
          0., 0., 2., 2., 2., 0., 0., 0., 0., 0., 0., 0., 0., 0., 0., 0.,
          0., 0., 0., 0., 0., 0., 0., 0., 0., 0., 0., 0., 0., 0., 0., 0.,
          0., 0., 0., 0., 0., 0., 0., 0., 0., 0., 0., 0., 1., 1., 1., 0.,
          0., 0., 1., 1., 1., 0., 0., 0., 0., 0., 0., 1., 1., 1., 2., 2.,
          2., 1., 1., 1., 0., 0., 0., 0., 0., 0., 0., 0., 0., 1., 1., 1.,
          0., 0., 0., 4., 4., 4., 0., 0., 0., 0., 0., 0., 0., 0., 0., 0.,
          0., 0., 0., 0., 0., 0., 0., 0., 0., 0., 0., 0., 0., 0., 0., 0.,
          0., 0., 0., 0., 0., 0., 0., 0., 0., 0., 0., 0., 0., 1., 1., 1.,
          0., 0., 0., 2., 2., 2., 0., 0., 0., 0., 0., 0., 1., 1., 1., 0.,
          0., 0., 0., 0., 0., 0., 0., 0., 2., 2., 2., 1., 1., 1., 0., 0.,
          0., 2., 2., 2., 0., 0., 0., 0., 0., 0., 3., 3., 3., 0., 0., 0.,
          0., 0., 0., 0., 0., 0., 0., 0., 0., 0., 0., 0., 0., 0., 0., 0.,
          0., 0., 0., 0., 0., 0., 0., 0., 0., 0., 0., 0., 0., 0., 0., 0.,
          0., 1., 1., 1., 0., 0., 0., 0., 0., 0., 2., 2., 2., 0., 0., 0.,
          3., 3., 3., 2., 2., 2., 2., 2., 2., 0., 0., 0., 0., 0., 0., 2.,
          2., 2., 0., 0., 0., 1., 1., 1., 2., 2., 2., 3., 3., 3., 0., 0.,
          0., 0., 0., 0., 0., 0., 0., 0., 0., 0., 0., 0., 0., 0., 0., 0.,
          0., 0., 0., 0., 0., 0., 0., 0., 0., 0., 0., 0., 0., 0., 0., 0.,
          0., 0., 0., 0., 0., 1., 1., 1., 0., 0., 0., 1., 1., 1., 0., 0.,
          0., 1., 1., 1., 0., 0., 0., 0., 0., 0., 0., 0., 0., 2., 2., 2.,
          0., 0., 0., 1., 1., 1., 0., 0., 0., 0., 0., 0., 1., 1., 1., 0.,
          0., 0., 0., 0., 0., 0., 0., 0., 0., 0., 0., 0., 0., 0., 0., 0.,
          0., 0., 0., 0., 0., 0., 0., 0., 0., 0., 0., 0., 0., 0., 0., 0.,
          0., 0., 0., 0., 0., 0., 0., 0., 0., 0., 0., 0., 1., 1., 1., 0.,
          0., 0., 3., 3., 3., 0., 0., 0., 0., 0., 0., 5., 5., 5., 0., 0.,
          0., 0., 0., 0., 2., 2., 2., 0., 0., 0., 0., 0., 0., 7., 7., 7.,
          0., 0., 0., 2., 2., 2., 0., 0., 0., 0., 0., 0., 0., 0., 0., 0.,
          0., 0., 0., 0., 0., 0., 0., 0., 0., 0., 0., 0., 0., 0., 0., 0.,
          0., 0., 0., 0., 0., 0., 0., 0., 0., 0., 0., 0., 0., 0., 0., 0.,
          0., 0., 0., 3., 3., 3., 0., 0., 0., 1., 1., 1., 0., 0., 0., 0.,
          0., 0., 1., 1., 1., 0., 0., 0., 0., 0., 0., 1., 1., 1., 0., 0.,
          0., 1., 1., 1., 0., 0., 0., 0., 0., 0., 0., 0., 0., 0., 0., 0.,
          0., 0., 0., 0., 0., 0., 0., 0., 0., 0., 0., 0., 0., 0., 0., 0.,
          0., 0., 0., 0., 0., 0., 0., 0., 0., 0., 0., 0., 0., 0., 0., 0.,
          0., 0., 0., 0., 0., 0., 0., 0., 0., 0., 0., 0., 0., 0., 0., 0.,
          0., 0., 0., 0., 0., 0., 0., 0., 0., 0., 0., 0., 0., 0., 0., 0.,
          0., 0., 0., 0., 0., 0., 0., 0., 0., 0., 0., 0., 0., 0., 0., 0.,
          0., 0., 0., 0., 0., 0., 0., 0., 0., 0., 0., 0., 0., 0., 0., 0.,
          0., 0., 0., 0., 0., 0., 0., 0., 0., 0., 0., 0., 0., 0., 0., 0.,
          0., 0., 0., 0., 0., 0., 0., 0., 0., 0., 0., 0., 0., 0., 0., 0.,
          0., 0., 0., 0., 0., 0., 0., 0., 0., 0., 0., 0., 0., 0., 0., 0.,
          0., 0., 0., 0., 0., 0., 0., 0., 0., 0., 0., 0., 0., 0., 0., 0.,
          0., 0., 0., 0., 0., 0., 0., 0., 0., 0., 0., 0., 0., 0., 0., 0.,
          0., 0., 0., 0., 0., 0., 0., 0., 0., 0., 0., 0., 0., 0., 0., 0.,
          0., 0., 0., 0., 0., 0., 0., 0., 0., 0., 0., 0., 0., 0., 0., 0.,
          0., 0., 0., 0., 0., 0., 0., 0., 0., 0., 0., 0., 0., 0., 0., 0.,
          0., 0., 0., 0., 0., 0., 0., 0., 0., 0., 0., 0., 0., 0., 0., 0.,
          0., 0., 0., 0., 0., 0., 0., 0., 0., 0., 0., 0., 0., 0., 0., 0.,
          0., 0., 0., 0., 0., 0., 0., 0., 0., 0., 0., 0., 0., 0., 0., 0.,
          0., 0., 0., 0., 0., 0., 0., 0., 0., 0., 0., 0., 0., 0., 0., 0.,
          0., 0., 0., 0., 0., 0., 0., 0., 0., 0., 0., 0., 0., 0., 0., 0.,
          0., 0., 0., 0., 0., 0., 0., 0., 0., 0., 0., 0., 0., 0., 0., 0.,
          0., 0., 0., 0., 0., 0., 0., 0., 0., 0., 0., 0., 0., 0., 0., 0.,
          0., 0., 0., 0., 0., 0., 0., 0., 0., 0., 0., 0., 0., 0., 0., 0.,
          0., 0., 0., 0., 0., 0., 0., 0., 0., 0., 0., 0., 0., 0., 0., 0.,
          0. ]
      - [ 0., 0., 0., 0., 0., 0., 0., 0., 0., 0., 0., 0., 0., 0., 0., 0.,
          0., 0., 2., 2., 2., 0., 0., 0., 1., 1., 1., 0., 0., 0., 2., 2.,
          2., 0., 0., 0., 4., 4., 4., 0., 0., 0., 0., 0., 0., 2., 2., 2.,
          1., 1., 1., 0., 0., 0., 0., 0., 0., 1., 1., 1., 0., 0., 0., 0.,
          0., 0., 0., 0., 0., 1., 1., 1., 0., 0., 0., 0., 0., 0., 0., 0.,
          0., 0., 0., 0., 0., 0., 0., 3., 3., 3., 1., 1., 1., 1., 1., 1.,
          1., 1., 1., 0., 0., 0., 5., 5., 5., 0., 0., 0., 0., 0., 0., 2.,
          2., 2., 0., 0., 0., 3., 3., 3., 0., 0., 0., 0., 0., 0., 5., 5.,
          5., 0., 0., 0., 1., 1., 1., 1., 1., 1., 1., 1., 1., 2., 2., 2.,
          1., 1., 1., 0., 0., 0., 0., 0., 0., 0., 0., 0., 0., 0., 0., 0.,
          0., 0., 0., 0., 0., 0., 0., 0., 1., 1., 1., 0., 0., 0., 1., 1.,
          1., 0., 0., 0., 1., 1., 1., 3., 3., 3., 1., 1., 1., 0., 0., 0.,
          2., 2., 2., 0., 0., 0., 0., 0., 0., 4., 4., 4., 1., 1., 1., 0.,
          0., 0., 0., 0., 0., 0., 0., 0., 0., 0., 0., 4., 4., 4., 0., 0.,
          0., 1., 1., 1., 2., 2., 2., 0., 0., 0., 3., 3., 3., 0., 0., 0.,
          0., 0., 0., 0., 0., 0., 0., 0., 0., 0., 0., 0., 0., 0., 0., 4.,
          4., 4., 2., 2., 2., 0., 0., 0., 2., 2., 2., 0., 0., 0., 0., 0.,
          0., 4., 4., 4., 0., 0., 0., 7., 7., 7., 0., 0., 0., 0., 0., 0.,
          255., 255., 255., 253., 253., 253., 255., 255., 255., 254.,
          254., 254., 255., 255., 255., 251., 251., 251., 255., 255.,
          255., 3., 3., 3., 0., 0., 0., 0., 0., 0., 0., 0., 0., 0., 0.,
          0., 0., 0., 0., 0., 0., 0., 0., 0., 0., 0., 0., 0., 0., 0., 0.,
          0., 0., 0., 0., 0., 0., 0., 0., 0., 3., 3., 3., 0., 0., 0., 4.,
          4., 4., 1., 1., 1., 255., 255., 255., 247., 247., 247., 255.,
          255., 255., 255., 255., 255., 255., 255., 255., 3., 3., 3., 0.,
          0., 0., 2., 2., 2., 0., 0., 0., 2., 2., 2., 255., 255., 255.,
          254., 254., 254., 0., 0., 0., 1., 1., 1., 0., 0., 0., 2., 2.,
          2., 0., 0., 0., 0., 0., 0., 0., 0., 0., 0., 0., 0., 1., 1., 1.,
          0., 0., 0., 0., 0., 0., 2., 2., 2., 0., 0., 0., 2., 2., 2., 0.,
          0., 0., 255., 255., 255., 255., 255., 255., 3., 3., 3., 0., 0.,
          0., 0., 0., 0., 0., 0., 0., 1., 1., 1., 0., 0., 0., 3., 3., 3.,
          0., 0., 0., 0., 0., 0., 0., 0., 0., 252., 252., 252., 1., 1.,
          1., 1., 1., 1., 1., 1., 1., 0., 0., 0., 0., 0., 0., 0., 0., 0.,
          0., 0., 0., 0., 0., 0., 0., 0., 0., 0., 0., 0., 6., 6., 6., 0.,
          0., 0., 3., 3., 3., 2., 2., 2., 2., 2., 2., 251., 251., 251.,
          0., 0., 0., 0., 0., 0., 1., 1., 1., 4., 4., 4., 0., 0., 0., 2.,
          2., 2., 5., 5., 5., 0., 0., 0., 4., 4., 4., 1., 1., 1., 2., 2.,
          2., 255., 255., 255., 0., 0., 0., 0., 0., 0., 0., 0., 0., 5.,
          5., 5., 0., 0., 0., 0., 0., 0., 0., 0., 0., 0., 0., 0., 1., 1.,
          1., 1., 1., 1., 0., 0., 0., 1., 1., 1., 0., 0., 0., 0., 0., 0.,
          0., 0., 0., 255., 255., 255., 2., 2., 2., 0., 0., 0., 3., 3.,
          3., 0., 0., 0., 2., 2., 2., 1., 1., 1., 0., 0., 0., 1., 1., 1.,
          0., 0., 0., 4., 4., 4., 0., 0., 0., 255., 255., 255., 1., 1.,
          1., 2., 2., 2., 0., 0., 0., 0., 0., 0., 0., 0., 0., 0., 0., 0.,
          0., 0., 0., 0., 0., 0., 1., 1., 1., 1., 1., 1., 1., 1., 1., 0.,
          0., 0., 1., 1., 1., 0., 0., 0., 0., 0., 0., 255., 255., 255.,
          0., 0., 0., 2., 2., 2., 0., 0., 0., 0., 0., 0., 2., 2., 2., 0.,
          0., 0., 0., 0., 0., 2., 2., 2., 1., 1., 1., 0., 0., 0., 5., 5.,
          5., 252., 252., 252., 255., 255., 255., 0., 0., 0., 0., 0., 0.,
          0., 0., 0., 0., 0., 0., 0., 0., 0., 0., 0., 0., 0., 0., 0., 0.,
          0., 0., 0., 0., 0., 1., 1., 1., 0., 0., 0., 1., 1., 1., 2., 2.,
          2., 0., 0., 0., 255., 255., 255., 2., 2., 2., 0., 0., 0., 0.,
          0., 0., 0., 0., 0., 2., 2., 2., 0., 0., 0., 1., 1., 1., 0., 0.,
          0., 2., 2., 2., 0., 0., 0., 1., 1., 1., 254., 254., 254., 255.,
          255., 255., 0., 0., 0., 1., 1., 1., 0., 0., 0., 0., 0., 0., 0.,
          0., 0., 0., 0., 0., 0., 0., 0., 0., 0., 0., 3., 3., 3., 0., 0.,
          0., 2., 2., 2., 3., 3., 3., 0., 0., 0., 2., 2., 2., 254., 254.,
          254., 0., 0., 0., 1., 1., 1., 1., 1., 1., 4., 4., 4., 3., 3.,
          3., 0., 0., 0., 4., 4., 4., 0., 0., 0., 0., 0., 0., 2., 2., 2.,
          0., 0., 0., 253., 253., 253., 255., 255., 255., 2., 2., 2., 0.,
          0., 0., 1., 1., 1., 0., 0., 0., 0., 0., 0., 0., 0., 0., 0., 0.,
          0., 1., 1., 1., 0., 0., 0., 1., 1., 1., 3., 3., 3., 0., 0., 0.,
          0., 0., 0., 5., 5., 5., 254., 254., 254., 5., 5., 5., 1., 1.,
          1., 1., 1., 1., 0., 0., 0., 0., 0., 0., 4., 4., 4., 0., 0., 0.,
          0., 0., 0., 0., 0., 0., 0., 0., 0., 4., 4., 4., 253., 253.,
          253., 254., 254., 254., 0., 0., 0., 0., 0., 0., 0., 0., 0., 0.,
          0., 0., 0., 0., 0., 0., 0., 0., 0., 0., 0., 2., 2., 2., 0., 0.,
          0., 0., 0., 0., 0., 0., 0., 0., 0., 0., 5., 5., 5., 1., 1., 1.,
          253., 253., 253., 255., 255., 255., 0., 0., 0., 3., 3., 3., 0.,
          0., 0., 6., 6., 6., 0., 0., 0., 5., 5., 5., 0., 0., 0., 0., 0.,
          0., 0., 0., 0., 0., 0., 0., 1., 1., 1., 255., 255., 255., 0.,
          0., 0., 1., 1., 1., 1., 1., 1., 0., 0., 0., 0., 0., 0., 0., 0.,
          0., 0., 0., 0., 0., 0., 0., 0., 0., 0., 4., 4., 4., 0., 0., 0.,
          5., 5., 5., 0., 0., 0., 3., 3., 3., 0., 0., 0., 254., 254.,
          254., 3., 3., 3., 1., 1., 1., 5., 5., 5., 0., 0., 0., 2., 2.,
          2., 0., 0., 0., 3., 3., 3., 1., 1., 1., 0., 0., 0., 3., 3., 3.,
          0., 0., 0., 255., 255., 255., 0., 0., 0., 0., 0., 0., 0., 0.,
          0., 0., 0., 0., 0., 0., 0., 0., 0., 0., 0., 0., 0., 2., 2., 2.,
          2., 2., 2., 0., 0., 0., 2., 2., 2., 0., 0., 0., 0., 0., 0., 0.,
          0., 0., 0., 0., 0., 255., 255., 255., 0., 0., 0., 0., 0., 0.,
          0., 0., 0., 5., 5., 5., 0., 0., 0., 0., 0., 0., 1., 1., 1., 0.,
          0., 0., 2., 2., 2., 2., 2., 2., 0., 0., 0., 255., 255., 255.,
          1., 1., 1., 0., 0., 0., 1., 1., 1., 0., 0., 0., 0., 0., 0., 0.,
          0., 0., 0., 0., 0., 0., 0., 0., 0., 0., 0., 3., 3., 3., 0., 0.,
          0., 0., 0., 0., 1., 1., 1., 3., 3., 3., 0., 0., 0., 255., 255.,
          255., 255., 255., 255., 0., 0., 0., 2., 2., 2., 0., 0., 0., 2.,
          2., 2., 2., 2., 2., 0., 0., 0., 0., 0., 0., 3., 3., 3., 0., 0.,
          0., 1., 1., 1., 255., 255., 255., 0., 0., 0., 0., 0., 0., 0.,
          0., 0., 0., 0., 0., 0., 0., 0., 0., 0., 0., 0., 0., 0., 0., 0.,
          0., 0., 0., 0., 0., 0., 0., 0., 0., 0., 1., 1., 1., 1., 1., 1.,
          1., 1., 1., 0., 0., 0., 0., 0., 0., 255., 255., 255., 252.,
          252., 252., 255., 255., 255., 255., 255., 255., 253., 253.,
          253., 255., 255., 255., 0., 0., 0., 1., 1., 1., 2., 2., 2., 0.,
          0., 0., 254., 254., 254., 255., 255., 255., 1., 1., 1., 0., 0.,
          0., 0., 0., 0., 1., 1., 1., 1., 1., 1., 1., 1., 1., 1., 1., 1.,
          0., 0., 0., 0., 0., 0., 0., 0., 0., 0., 0., 0., 1., 1., 1., 1.,
          1., 1., 0., 0., 0., 0., 0., 0., 1., 1., 1., 1., 1., 1., 4., 4.,
          4., 0., 0., 0., 0., 0., 0., 1., 1., 1., 1., 1., 1., 1., 1., 1.,
          0., 0., 0., 0., 0., 0., 0., 0., 0., 253., 253., 253., 2., 2.,
          2., 1., 1., 1., 0., 0., 0., 1., 1., 1., 0., 0., 0., 0., 0., 0.,
          0., 0., 0., 0., 0., 0., 0., 0., 0., 0., 0., 0., 0., 0., 0., 0.,
          0., 0., 1., 1., 1., 1., 1., 1., 1., 1., 1., 1., 1., 1., 0., 0.,
          0., 0., 0., 0., 0., 0., 0., 3., 3., 3., 0., 0., 0., 2., 2., 2.,
          1., 1., 1., 6., 6., 6., 0., 0., 0., 255., 255., 255., 255.,
          255., 255., 253., 253., 253., 0., 0., 0., 4., 4., 4., 0., 0.,
          0., 5., 5., 5., 1., 1., 1., 1., 1., 1., 1., 1., 1., 0., 0., 0.,
          0., 0., 0., 0., 0., 0., 0., 0., 0., 1., 1., 1., 1., 1., 1., 1.,
          1., 1., 2., 2., 2., 2., 2., 2., 4., 4., 4., 1., 1., 1., 0., 0.,
          0., 0., 0., 0., 255., 255., 255., 254., 254., 254., 0., 0., 0.,
          0., 0., 0., 255., 255., 255., 250., 250., 250., 0., 0., 0., 2.,
          2., 2., 1., 1., 1., 1., 1., 1., 1., 1., 1., 0., 0., 0., 1., 1.,
          1., 1., 1., 1., 1., 1., 1., 0., 0., 0., 0., 0., 0., 0., 0., 0.,
          0., 0., 0., 0., 0., 0., 0., 0., 0., 1., 1., 1., 1., 1., 1., 1.,
          1., 1., 0., 0., 0., 0., 0., 0., 1., 1., 1., 0., 0., 0., 252.,
          252., 252., 255., 255., 255., 255., 255., 255., 253., 253.,
          253., 254., 254., 254., 4., 4., 4., 0., 0., 0., 0., 0., 0., 6.,
          6., 6., 0., 0., 0., 1., 1., 1., 2., 2., 2., 0., 0., 0., 0., 0.,
          0., 0., 0., 0., 1., 1., 1., 0., 0., 0., 0., 0., 0., 0., 0., 0.,
          0., 0., 0., 0., 0., 0., 1., 1., 1., 1., 1., 1., 2., 2., 2., 0.,
          0., 0., 3., 3., 3., 0., 0., 0., 5., 5., 5., 1., 1., 1., 0., 0.,
          0., 1., 1., 1., 2., 2., 2., 0., 0., 0., 1., 1., 1., 2., 2., 2.,
          0., 0., 0., 0., 0., 0., 1., 1., 1., 3., 3., 3., 0., 0., 0., 1.,
          1., 1., 1., 1., 1., 1., 1., 1., 1., 1., 1., 0., 0., 0., 0., 0.,
          0., 0., 0., 0., 0., 0., 0., 0., 0., 0., 1., 1., 1., 2., 2., 2.,
          3., 3., 3., 3., 3., 3., 0., 0., 0., 3., 3., 3., 0., 0., 0., 0.,
          0., 0., 1., 1., 1., 6., 6., 6., 0., 0., 0., 3., 3., 3., 3., 3.,
          3., 0., 0., 0., 4., 4., 4., 1., 1., 1., 4., 4., 4., 0., 0., 0.,
          0., 0., 0., 2., 2., 2., 2., 2., 2., 2., 2., 2., 1., 1., 1., 0.,
          0., 0., 0., 0., 0., 0., 0., 0., 0., 0., 0., 0., 0., 0., 0., 0.,
          0., 1., 1., 1., 2., 2., 2., 0., 0., 0., 1., 1., 1., 3., 3., 3.,
          0., 0., 0., 3., 3., 3., 0., 0., 0., 0., 0., 0., 2., 2., 2., 1.,
          1., 1., 0., 0., 0., 2., 2., 2., 1., 1., 1., 0., 0., 0., 0., 0.,
          0., 3., 3., 3., 0., 0., 0., 0., 0., 0., 0., 0., 0., 1., 1., 1.,
          1., 1., 1., 0., 0., 0., 0., 0., 0., 0., 0., 0., 0., 0., 0., 0.,
          0., 0., 0., 0., 0., 0., 0., 0., 0., 0., 0., 0., 0., 0., 0., 0.,
          0., 0., 0., 0., 0., 0., 0., 0., 0., 0., 0., 0., 0., 0., 0., 0.,
          0., 0., 0., 0., 0., 0., 0., 0., 0., 0., 0., 0., 0., 0., 0., 0.,
          0., 0., 0., 0., 0., 0., 0., 0., 0., 0., 0., 0., 0., 0., 0., 0.,
          0., 0., 0., 0., 0., 0., 0., 0., 0., 0., 0., 0., 0., 0., 0., 0.,
          0., 0., 0., 0., 0., 0., 0., 0., 0., 0., 0., 0., 0., 0., 0., 0.,
          0., 0., 0., 0., 0., 0., 0., 0., 0., 0., 0., 0., 0., 0., 0., 0.,
          0., 0., 0., 0., 0., 0., 0., 0., 0., 0., 0., 0., 0., 0., 0., 0.,
          0., 0., 0., 0., 0., 0., 0., 0., 0., 0., 0., 0., 0., 0., 0., 0.,
          0., 0., 0., 0., 0., 0., 0., 0., 0., 0., 0., 0., 0., 0., 0., 0.,
          0., 0., 0., 0., 0., 0., 0., 0., 0., 0., 0., 0., 0., 0., 0., 0.,
          0., 0., 0., 0., 0., 0., 0., 0., 0., 0., 0., 0., 0., 0., 0., 0.,
          0., 0., 0., 0., 0., 0., 0., 0., 0., 0., 0., 0., 0., 0., 0., 0.,
          0., 0., 0., 0., 0., 0., 0., 0., 0., 0., 0., 0., 0., 0., 0., 0.,
          0., 0., 0., 0., 0., 0., 0., 0., 0., 0., 0., 0., 0., 0., 0., 0.,
          0., 0., 0., 0., 0., 0., 0., 0., 0., 0., 0., 0., 0., 0., 0., 0.,
          0., 0., 0., 0., 0., 0., 0., 0., 0., 0., 0., 0., 0., 0., 0., 0.,
          0., 0., 0., 0., 0., 0., 0., 0., 0., 0., 0., 0., 0., 0., 0., 0.,
          0., 0., 0., 0., 0., 0., 0., 0., 0., 0., 0., 0., 0., 0., 0., 0.,
          0., 0., 0., 0., 0., 0., 0., 0., 0., 0., 0., 0., 0., 0., 0., 0.,
          0., 0., 0. ]
      - [ 0., 0., 0., 1., 1., 1., 0., 0., 0., 3., 3., 3., 0., 0., 0., 0.,
          0., 0., 2., 2., 2., 0., 0., 0., 0., 0., 0., 1., 1., 1., 0., 0.,
          0., 0., 0., 0., 3., 3., 3., 2., 2., 2., 0., 0., 0., 0., 0., 0.,
          2., 2., 2., 0., 0., 0., 1., 1., 1., 0., 0., 0., 0., 0., 0., 0.,
          0., 0., 0., 0., 0., 0., 0., 0., 0., 0., 0., 0., 0., 0., 0., 0.,
          0., 0., 0., 0., 1., 1., 1., 0., 0., 0., 3., 3., 3., 0., 0., 0.,
          0., 0., 0., 2., 2., 2., 2., 2., 2., 0., 0., 0., 6., 6., 6., 0.,
          0., 0., 4., 4., 4., 1., 1., 1., 0., 0., 0., 0., 0., 0., 2., 2.,
          2., 0., 0., 0., 2., 2., 2., 0., 0., 0., 0., 0., 0., 0., 0., 0.,
          4., 4., 4., 0., 0., 0., 1., 1., 1., 0., 0., 0., 0., 0., 0., 0.,
          0., 0., 0., 0., 0., 0., 0., 0., 2., 2., 2., 1., 1., 1., 2., 2.,
          2., 0., 0., 0., 0., 0., 0., 5., 5., 5., 0., 0., 0., 3., 3., 3.,
          0., 0., 0., 0., 0., 0., 1., 1., 1., 0., 0., 0., 0., 0., 0., 4.,
          4., 4., 3., 3., 3., 0., 0., 0., 0., 0., 0., 7., 7., 7., 0., 0.,
          0., 3., 3., 3., 0., 0., 0., 0., 0., 0., 0., 0., 0., 0., 0., 0.,
          0., 0., 0., 0., 0., 0., 0., 0., 0., 0., 0., 0., 0., 0., 0., 0.,
          0., 0., 0., 0., 0., 0., 0., 0., 3., 3., 3., 0., 0., 0., 2., 2.,
          2., 1., 1., 1., 2., 2., 2., 3., 3., 3., 254., 254., 254., 0.,
          0., 0., 0., 0., 0., 0., 0., 0., 0., 0., 0., 1., 1., 1., 5., 5.,
          5., 0., 0., 0., 2., 2., 2., 1., 1., 1., 0., 0., 0., 0., 0., 0.,
          2., 2., 2., 0., 0., 0., 0., 0., 0., 0., 0., 0., 0., 0., 0., 0.,
          0., 0., 4., 4., 4., 0., 0., 0., 0., 0., 0., 1., 1., 1., 2., 2.,
          2., 0., 0., 0., 0., 0., 0., 0., 0., 0., 252., 252., 252., 254.,
          254., 254., 255., 255., 255., 254., 254., 254., 255., 255.,
          255., 253., 253., 253., 255., 255., 255., 250., 250., 250.,
          255., 255., 255., 252., 252., 252., 3., 3., 3., 0., 0., 0., 1.,
          1., 1., 2., 2., 2., 1., 1., 1., 0., 0., 0., 0., 0., 0., 0., 0.,
          0., 0., 0., 0., 0., 0., 0., 0., 0., 0., 0., 0., 0., 2., 2., 2.,
          0., 0., 0., 0., 0., 0., 0., 0., 0., 255., 255., 255., 255.,
          255., 255., 255., 255., 255., 0., 0., 0., 0., 0., 0., 1., 1.,
          1., 0., 0., 0., 1., 1., 1., 0., 0., 0., 3., 3., 3., 0., 0., 0.,
          255., 255., 255., 251., 251., 251., 1., 1., 1., 1., 1., 1., 0.,
          0., 0., 0., 0., 0., 4., 4., 4., 0., 0., 0., 0., 0., 0., 0., 0.,
          0., 0., 0., 0., 3., 3., 3., 0., 0., 0., 0., 0., 0., 3., 3., 3.,
          1., 1., 1., 0., 0., 0., 253., 253., 253., 2., 2., 2., 1., 1.,
          1., 1., 1., 1., 0., 0., 0., 2., 2., 2., 0., 0., 0., 7., 7., 7.,
          4., 4., 4., 0., 0., 0., 1., 1., 1., 0., 0., 0., 255., 255.,
          255., 0., 0., 0., 0., 0., 0., 1., 1., 1., 0., 0., 0., 0., 0.,
          0., 0., 0., 0., 0., 0., 0., 0., 0., 0., 0., 0., 0., 0., 0., 0.,
          1., 1., 1., 1., 1., 1., 0., 0., 0., 1., 1., 1., 3., 3., 3.,
          254., 254., 254., 0., 0., 0., 0., 0., 0., 1., 1., 1., 1., 1.,
          1., 1., 1., 1., 1., 1., 1., 0., 0., 0., 1., 1., 1., 0., 0., 0.,
          2., 2., 2., 0., 0., 0., 255., 255., 255., 0., 0., 0., 1., 1.,
          1., 1., 1., 1., 0., 0., 0., 0., 0., 0., 0., 0., 0., 0., 0., 0.,
          0., 0., 0., 0., 0., 0., 0., 0., 0., 0., 0., 0., 1., 1., 1., 0.,
          0., 0., 0., 0., 0., 0., 0., 0., 255., 255., 255., 1., 1., 1.,
          0., 0., 0., 2., 2., 2., 1., 1., 1., 0., 0., 0., 0., 0., 0., 3.,
          3., 3., 0., 0., 0., 0., 0., 0., 0., 0., 0., 5., 5., 5., 253.,
          253., 253., 0., 0., 0., 4., 4., 4., 0., 0., 0., 0., 0., 0., 0.,
          0., 0., 0., 0., 0., 0., 0., 0., 0., 0., 0., 0., 0., 0., 1., 1.,
          1., 2., 2., 2., 0., 0., 0., 0., 0., 0., 0., 0., 0., 6., 6., 6.,
          250., 250., 250., 2., 2., 2., 7., 7., 7., 0., 0., 0., 2., 2.,
          2., 0., 0., 0., 1., 1., 1., 0., 0., 0., 3., 3., 3., 1., 1., 1.,
          3., 3., 3., 0., 0., 0., 255., 255., 255., 254., 254., 254., 0.,
          0., 0., 0., 0., 0., 2., 2., 2., 1., 1., 1., 0., 0., 0., 0., 0.,
          0., 0., 0., 0., 0., 0., 0., 0., 0., 0., 0., 0., 0., 0., 0., 0.,
          1., 1., 1., 5., 5., 5., 0., 0., 0., 254., 254., 254., 255.,
          255., 255., 0., 0., 0., 3., 3., 3., 1., 1., 1., 2., 2., 2., 0.,
          0., 0., 8., 8., 8., 1., 1., 1., 0., 0., 0., 0., 0., 0., 0., 0.,
          0., 1., 1., 1., 252., 252., 252., 2., 2., 2., 1., 1., 1., 0.,
          0., 0., 0., 0., 0., 0., 0., 0., 0., 0., 0., 0., 0., 0., 0., 0.,
          0., 1., 1., 1., 4., 4., 4., 0., 0., 0., 0., 0., 0., 1., 1., 1.,
          1., 1., 1., 5., 5., 5., 251., 251., 251., 5., 5., 5., 1., 1.,
          1., 0., 0., 0., 1., 1., 1., 0., 0., 0., 1., 1., 1., 0., 0., 0.,
          0., 0., 0., 6., 6., 6., 2., 2., 2., 0., 0., 0., 1., 1., 1., 0.,
          0., 0., 0., 0., 0., 0., 0., 0., 3., 3., 3., 0., 0., 0., 0., 0.,
          0., 0., 0., 0., 0., 0., 0., 0., 0., 0., 0., 0., 0., 3., 3., 3.,
          0., 0., 0., 1., 1., 1., 0., 0., 0., 0., 0., 0., 4., 4., 4.,
          253., 253., 253., 0., 0., 0., 1., 1., 1., 2., 2., 2., 0., 0.,
          0., 0., 0., 0., 10., 10., 10., 0., 0., 0., 0., 0., 0., 0., 0.,
          0., 0., 0., 0., 254., 254., 254., 3., 3., 3., 0., 0., 0., 0.,
          0., 0., 0., 0., 0., 0., 0., 0., 0., 0., 0., 0., 0., 0., 0., 0.,
          0., 2., 2., 2., 0., 0., 0., 1., 1., 1., 2., 2., 2., 0., 0., 0.,
          0., 0., 0., 5., 5., 5., 0., 0., 0., 253., 253., 253., 3., 3.,
          3., 2., 2., 2., 0., 0., 0., 2., 2., 2., 3., 3., 3., 0., 0., 0.,
          5., 5., 5., 0., 0., 0., 1., 1., 1., 255., 255., 255., 253.,
          253., 253., 0., 0., 0., 0., 0., 0., 0., 0., 0., 0., 0., 0., 0.,
          0., 0., 0., 0., 0., 0., 0., 0., 0., 0., 0., 0., 0., 0., 1., 1.,
          1., 0., 0., 0., 0., 0., 0., 5., 5., 5., 2., 2., 2., 0., 0., 0.,
          1., 1., 1., 253., 253., 253., 255., 255., 255., 0., 0., 0., 1.,
          1., 1., 1., 1., 1., 1., 1., 1., 0., 0., 0., 0., 0., 0., 2., 2.,
          2., 1., 1., 1., 254., 254., 254., 0., 0., 0., 0., 0., 0., 3.,
          3., 3., 0., 0., 0., 0., 0., 0., 0., 0., 0., 0., 0., 0., 0., 0.,
          0., 0., 0., 0., 0., 0., 0., 0., 0., 0., 2., 2., 2., 0., 0., 0.,
          0., 0., 0., 0., 0., 0., 0., 0., 0., 0., 0., 0., 1., 1., 1.,
          255., 255., 255., 252., 252., 252., 255., 255., 255., 0., 0.,
          0., 0., 0., 0., 0., 0., 0., 255., 255., 255., 0., 0., 0., 0.,
          0., 0., 252., 252., 252., 2., 2., 2., 0., 0., 0., 0., 0., 0.,
          0., 0., 0., 0., 0., 0., 0., 0., 0., 0., 0., 0., 0., 0., 0., 0.,
          0., 0., 0., 0., 0., 0., 0., 0., 0., 0., 0., 0., 0., 0., 0., 0.,
          0., 0., 0., 0., 0., 0., 0., 0., 0., 0., 0., 0., 0., 0., 0., 0.,
          255., 255., 255., 255., 255., 255., 253., 253., 253., 255.,
          255., 255., 255., 255., 255., 254., 254., 254., 0., 0., 0.,
          254., 254., 254., 255., 255., 255., 0., 0., 0., 2., 2., 2., 0.,
          0., 0., 0., 0., 0., 3., 3., 3., 0., 0., 0., 0., 0., 0., 0., 0.,
          0., 0., 0., 0., 0., 0., 0., 0., 0., 0., 0., 0., 0., 0., 0., 0.,
          0., 0., 0., 0., 0., 0., 0., 0., 0., 0., 0., 0., 8., 8., 8., 0.,
          0., 0., 0., 0., 0., 0., 0., 0., 0., 0., 0., 254., 254., 254.,
          251., 251., 251., 255., 255., 255., 251., 251., 251., 255.,
          255., 255., 0., 0., 0., 6., 6., 6., 0., 0., 0., 0., 0., 0., 2.,
          2., 2., 0., 0., 0., 0., 0., 0., 0., 0., 0., 0., 0., 0., 0., 0.,
          0., 0., 0., 0., 0., 0., 0., 0., 0., 0., 0., 0., 0., 0., 0., 0.,
          0., 0., 0., 1., 1., 1., 1., 1., 1., 0., 0., 0., 0., 0., 0., 1.,
          1., 1., 6., 6., 6., 0., 0., 0., 5., 5., 5., 2., 2., 2., 1., 1.,
          1., 4., 4., 4., 0., 0., 0., 1., 1., 1., 1., 1., 1., 1., 1., 1.,
          0., 0., 0., 2., 2., 2., 0., 0., 0., 0., 0., 0., 0., 0., 0., 0.,
          0., 0., 0., 0., 0., 0., 0., 0., 0., 0., 0., 0., 0., 0., 0., 0.,
          0., 0., 0., 0., 0., 0., 0., 1., 1., 1., 1., 1., 1., 0., 0., 0.,
          0., 0., 0., 3., 3., 3., 0., 0., 0., 0., 0., 0., 1., 1., 1., 1.,
          1., 1., 0., 0., 0., 2., 2., 2., 0., 0., 0., 0., 0., 0., 0., 0.,
          0., 1., 1., 1., 0., 0., 0., 0., 0., 0., 1., 1., 1., 0., 0., 0.,
          0., 0., 0., 0., 0., 0., 0., 0., 0., 0., 0., 0., 0., 0., 0., 0.,
          0., 0., 0., 0., 0., 0., 0., 0., 1., 1., 1., 1., 1., 1., 1., 1.,
          1., 3., 3., 3., 5., 5., 5., 0., 0., 0., 2., 2., 2., 0., 0., 0.,
          0., 0., 0., 3., 3., 3., 0., 0., 0., 0., 0., 0., 0., 0., 0., 8.,
          8., 8., 5., 5., 5., 0., 0., 0., 1., 1., 1., 1., 1., 1., 0., 0.,
          0., 0., 0., 0., 0., 0., 0., 0., 0., 0., 0., 0., 0., 0., 0., 0.,
          0., 0., 0., 0., 0., 0., 0., 0., 0., 0., 0., 0., 1., 1., 1., 1.,
          1., 1., 1., 1., 1., 0., 0., 0., 0., 0., 0., 0., 0., 0., 3., 3.,
          3., 0., 0., 0., 3., 3., 3., 0., 0., 0., 5., 5., 5., 3., 3., 3.,
          1., 1., 1., 0., 0., 0., 0., 0., 0., 0., 0., 0., 0., 0., 0., 0.,
          0., 0., 2., 2., 2., 0., 0., 0., 0., 0., 0., 0., 0., 0., 0., 0.,
          0., 0., 0., 0., 0., 0., 0., 0., 0., 0., 0., 0., 0., 0., 0., 0.,
          1., 1., 1., 1., 1., 1., 2., 2., 2., 0., 0., 0., 0., 0., 0., 8.,
          8., 8., 0., 0., 0., 2., 2., 2., 1., 1., 1., 0., 0., 0., 1., 1.,
          1., 1., 1., 1., 1., 1., 1., 1., 1., 1., 5., 5., 5., 0., 0., 0.,
          0., 0., 0., 7., 7., 7., 0., 0., 0., 0., 0., 0., 0., 0., 0., 0.,
          0., 0., 0., 0., 0., 0., 0., 0., 0., 0., 0., 0., 0., 0., 0., 0.,
          0., 0., 0., 0., 1., 1., 1., 1., 1., 1., 2., 2., 2., 1., 1., 1.,
          1., 1., 1., 0., 0., 0., 0., 0., 0., 2., 2., 2., 0., 0., 0., 3.,
          3., 3., 0., 0., 0., 0., 0., 0., 2., 2., 2., 1., 1., 1., 0., 0.,
          0., 0., 0., 0., 2., 2., 2., 0., 0., 0., 2., 2., 2., 0., 0., 0.,
          0., 0., 0., 0., 0., 0., 0., 0., 0., 0., 0., 0., 0., 0., 0., 0.,
          0., 0., 0., 0., 0., 0., 0., 0., 0., 0., 0., 0., 0., 0., 0., 0.,
          0., 0., 0., 0., 0., 0., 0., 0., 0., 0., 0., 0., 0., 0., 0., 0.,
          0., 0., 0., 0., 0., 0., 0., 0., 0., 0., 0., 0., 0., 0., 0., 0.,
          0., 0., 0., 0., 0., 0., 0., 0., 0., 0., 0., 0., 0., 0., 0., 0.,
          0., 0., 0., 0., 0., 0., 0., 0., 0., 0., 0., 0., 0., 0., 0., 0.,
          0., 0., 0., 0., 0., 0., 0., 0., 0., 0., 0., 0., 0., 0., 0., 0.,
          0., 0., 0., 0., 0., 0., 0., 0., 0., 0., 0., 0., 0., 0., 0., 0.,
          0., 0., 0., 0., 0., 0., 0., 0., 0., 0., 0., 0., 0., 0., 0., 0.,
          0., 0., 0., 0., 0., 0., 0., 0., 0., 0., 0., 0., 0., 0., 0., 0.,
          0., 0., 0., 0., 0., 0., 0., 0., 0., 0., 0., 0., 0., 0., 0., 0.,
          0., 0., 0., 0., 0., 0., 0., 0., 0., 0., 0., 0., 0., 0., 0., 0.,
          0., 0., 0., 0., 0., 0., 0., 0., 0., 0., 0., 0., 0., 0., 0., 0.,
          0., 0., 0., 0., 0., 0., 0., 0., 0., 0., 0., 0., 0., 0., 0., 0.,
          0., 0., 0., 0., 0., 0., 0., 0., 0., 0., 0., 0., 0., 0., 0., 0.,
          0., 0., 0., 0., 0., 0., 0., 0., 0., 0., 0., 0., 0., 0., 0., 0.,
          0., 0., 0., 0., 0., 0., 0., 0., 0., 0., 0., 0., 0., 0., 0., 0.,
          0., 0., 0., 0., 0., 0., 0., 0., 0., 0., 0., 0., 0., 0., 0., 0.,
          0., 0., 0., 0., 0., 0., 0., 0., 0., 0., 0., 0., 0., 0., 0., 0.,
          0., 0., 0., 0., 0., 0., 0., 0., 0., 0., 0., 0., 0., 0., 0., 0.,
          0., 0., 0., 0., 0., 0., 0., 0., 0., 0., 0., 0., 0., 0., 0., 0.,
          0., 0., 0., 0., 0., 0., 0., 0., 0. ]
      - [ 1., 1., 1., 0., 0., 0., 0., 0., 0., 0., 0., 0., 0., 0., 0., 1.,
          1., 1., 1., 1., 1., 1., 1., 1., 0., 0., 0., 0., 0., 0., 1., 1.,
          1., 4., 4., 4., 0., 0., 0., 0., 0., 0., 2., 2., 2., 1., 1., 1.,
          0., 0., 0., 1., 1., 1., 0., 0., 0., 1., 1., 1., 1., 1., 1., 0.,
          0., 0., 0., 0., 0., 2., 2., 2., 0., 0., 0., 0., 0., 0., 0., 0.,
          0., 0., 0., 0., 0., 0., 0., 0., 0., 0., 0., 0., 0., 1., 1., 1.,
          1., 1., 1., 1., 1., 1., 1., 1., 1., 0., 0., 0., 1., 1., 1., 1.,
          1., 1., 1., 1., 1., 0., 0., 0., 3., 3., 3., 3., 3., 3., 0., 0.,
          0., 1., 1., 1., 1., 1., 1., 1., 1., 1., 3., 3., 3., 0., 0., 0.,
          1., 1., 1., 0., 0., 0., 0., 0., 0., 0., 0., 0., 0., 0., 0., 0.,
          0., 0., 0., 0., 0., 0., 0., 0., 0., 0., 0., 0., 0., 0., 0., 0.,
          0., 1., 1., 1., 2., 2., 2., 2., 2., 2., 1., 1., 1., 1., 1., 1.,
          0., 0., 0., 5., 5., 5., 0., 0., 0., 1., 1., 1., 1., 1., 1., 0.,
          0., 0., 4., 4., 4., 5., 5., 5., 1., 1., 1., 3., 3., 3., 0., 0.,
          0., 2., 2., 2., 0., 0., 0., 0., 0., 0., 3., 3., 3., 0., 0., 0.,
          0., 0., 0., 0., 0., 0., 0., 0., 0., 0., 0., 0., 0., 0., 0., 0.,
          0., 0., 0., 0., 0., 0., 0., 0., 0., 0., 0., 1., 1., 1., 2., 2.,
          2., 3., 3., 3., 4., 4., 4., 0., 0., 0., 1., 1., 1., 0., 0., 0.,
          0., 0., 0., 5., 5., 5., 0., 0., 0., 254., 254., 254., 253.,
          253., 253., 254., 254., 254., 4., 4., 4., 3., 3., 3., 3., 3.,
          3., 0., 0., 0., 0., 0., 0., 0., 0., 0., 0., 0., 0., 0., 0., 0.,
          0., 0., 0., 0., 0., 0., 1., 1., 1., 0., 0., 0., 0., 0., 0., 0.,
          0., 0., 0., 0., 0., 1., 1., 1., 1., 1., 1., 2., 2., 2., 1., 1.,
          1., 0., 0., 0., 1., 1., 1., 1., 1., 1., 1., 1., 1., 255., 255.,
          255., 255., 255., 255., 0., 0., 0., 254., 254., 254., 255.,
          255., 255., 1., 1., 1., 0., 0., 0., 0., 0., 0., 2., 2., 2., 0.,
          0., 0., 1., 1., 1., 0., 0., 0., 0., 0., 0., 0., 0., 0., 0., 0.,
          0., 0., 0., 0., 0., 0., 0., 0., 0., 0., 0., 0., 0., 1., 1., 1.,
          1., 1., 1., 0., 0., 0., 0., 0., 0., 0., 0., 0., 3., 3., 3., 0.,
          0., 0., 254., 254., 254., 253., 253., 253., 0., 0., 0., 2., 2.,
          2., 0., 0., 0., 255., 255., 255., 251., 251., 251., 4., 4., 4.,
          0., 0., 0., 1., 1., 1., 1., 1., 1., 0., 0., 0., 0., 0., 0., 0.,
          0., 0., 0., 0., 0., 0., 0., 0., 0., 0., 0., 0., 0., 0., 0., 0.,
          0., 0., 0., 0., 1., 1., 1., 1., 1., 1., 1., 1., 1., 1., 1., 1.,
          0., 0., 0., 4., 4., 4., 0., 0., 0., 255., 255., 255., 255.,
          255., 255., 0., 0., 0., 3., 3., 3., 0., 0., 0., 5., 5., 5.,
          253., 253., 253., 255., 255., 255., 1., 1., 1., 1., 1., 1., 0.,
          0., 0., 0., 0., 0., 2., 2., 2., 0., 0., 0., 0., 0., 0., 0., 0.,
          0., 0., 0., 0., 0., 0., 0., 0., 0., 0., 0., 0., 0., 0., 0., 0.,
          0., 0., 0., 0., 0., 0., 2., 2., 2., 2., 2., 2., 3., 3., 3., 0.,
          0., 0., 1., 1., 1., 252., 252., 252., 1., 1., 1., 1., 1., 1.,
          1., 1., 1., 0., 0., 0., 0., 0., 0., 255., 255., 255., 0., 0.,
          0., 0., 0., 0., 3., 3., 3., 3., 3., 3., 0., 0., 0., 0., 0., 0.,
          0., 0., 0., 0., 0., 0., 0., 0., 0., 0., 0., 0., 0., 0., 0., 0.,
          0., 0., 0., 0., 0., 0., 0., 0., 0., 0., 0., 0., 0., 0., 0., 0.,
          0., 1., 1., 1., 1., 1., 1., 0., 0., 0., 255., 255., 255., 2.,
          2., 2., 1., 1., 1., 0., 0., 0., 6., 6., 6., 0., 0., 0., 254.,
          254., 254., 255., 255., 255., 2., 2., 2., 1., 1., 1., 0., 0.,
          0., 0., 0., 0., 0., 0., 0., 0., 0., 0., 1., 1., 1., 0., 0., 0.,
          0., 0., 0., 0., 0., 0., 0., 0., 0., 0., 0., 0., 0., 0., 0., 0.,
          0., 0., 0., 0., 0., 0., 0., 0., 0., 0., 0., 1., 1., 1., 1., 1.,
          1., 3., 3., 3., 0., 0., 0., 0., 0., 0., 0., 0., 0., 0., 0., 0.,
          0., 0., 0., 0., 0., 0., 254., 254., 254., 0., 0., 0., 2., 2.,
          2., 0., 0., 0., 3., 3., 3., 0., 0., 0., 2., 2., 2., 1., 1., 1.,
          1., 1., 1., 0., 0., 0., 0., 0., 0., 0., 0., 0., 0., 0., 0., 0.,
          0., 0., 0., 0., 0., 0., 0., 0., 0., 0., 0., 1., 1., 1., 1., 1.,
          1., 1., 1., 1., 0., 0., 0., 0., 0., 0., 4., 4., 4., 0., 0., 0.,
          0., 0., 0., 0., 0., 0., 3., 3., 3., 2., 2., 2., 254., 254.,
          254., 2., 2., 2., 1., 1., 1., 0., 0., 0., 4., 4., 4., 0., 0.,
          0., 0., 0., 0., 0., 0., 0., 0., 0., 0., 0., 0., 0., 0., 0., 0.,
          0., 0., 0., 0., 0., 0., 0., 0., 0., 0., 0., 0., 0., 0., 0., 0.,
          0., 0., 1., 1., 1., 1., 1., 1., 1., 1., 1., 0., 0., 0., 4., 4.,
          4., 0., 0., 0., 2., 2., 2., 1., 1., 1., 0., 0., 0., 0., 0., 0.,
          2., 2., 2., 253., 253., 253., 0., 0., 0., 2., 2., 2., 1., 1.,
          1., 0., 0., 0., 0., 0., 0., 3., 3., 3., 2., 2., 2., 0., 0., 0.,
          0., 0., 0., 0., 0., 0., 0., 0., 0., 0., 0., 0., 0., 0., 0., 0.,
          0., 0., 0., 0., 0., 1., 1., 1., 1., 1., 1., 1., 1., 1., 1., 1.,
          1., 0., 0., 0., 0., 0., 0., 0., 0., 0., 6., 6., 6., 0., 0., 0.,
          2., 2., 2., 2., 2., 2., 1., 1., 1., 254., 254., 254., 3., 3.,
          3., 2., 2., 2., 0., 0., 0., 3., 3., 3., 0., 0., 0., 0., 0., 0.,
          0., 0., 0., 0., 0., 0., 0., 0., 0., 0., 0., 0., 0., 0., 0., 0.,
          0., 0., 0., 0., 0., 0., 0., 0., 0., 0., 0., 0., 0., 0., 1., 1.,
          1., 1., 1., 1., 0., 0., 0., 0., 0., 0., 2., 2., 2., 0., 0., 0.,
          1., 1., 1., 1., 1., 1., 4., 4., 4., 0., 0., 0., 253., 253.,
          253., 254., 254., 254., 1., 1., 1., 0., 0., 0., 1., 1., 1., 0.,
          0., 0., 3., 3., 3., 0., 0., 0., 0., 0., 0., 4., 4., 4., 0., 0.,
          0., 0., 0., 0., 0., 0., 0., 0., 0., 0., 0., 0., 0., 0., 0., 0.,
          0., 0., 0., 0., 0., 0., 0., 0., 0., 0., 0., 0., 0., 0., 0., 1.,
          1., 1., 3., 3., 3., 0., 0., 0., 5., 5., 5., 2., 2., 2., 0., 0.,
          0., 2., 2., 2., 255., 255., 255., 0., 0., 0., 0., 0., 0., 3.,
          3., 3., 0., 0., 0., 4., 4., 4., 1., 1., 1., 0., 0., 0., 1., 1.,
          1., 0., 0., 0., 0., 0., 0., 0., 0., 0., 0., 0., 0., 0., 0., 0.,
          0., 0., 0., 0., 0., 0., 0., 0., 0., 0., 0., 0., 0., 0., 0., 0.,
          0., 0., 0., 0., 0., 1., 1., 1., 1., 1., 1., 0., 0., 0., 0., 0.,
          0., 2., 2., 2., 2., 2., 2., 0., 0., 0., 255., 255., 255., 0.,
          0., 0., 0., 0., 0., 3., 3., 3., 1., 1., 1., 0., 0., 0., 0., 0.,
          0., 1., 1., 1., 0., 0., 0., 2., 2., 2., 0., 0., 0., 0., 0., 0.,
          0., 0., 0., 0., 0., 0., 0., 0., 0., 0., 0., 0., 0., 0., 0., 0.,
          0., 0., 0., 0., 0., 0., 0., 0., 0., 0., 0., 0., 0., 0., 1., 1.,
          1., 0., 0., 0., 0., 0., 0., 0., 0., 0., 0., 0., 0., 1., 1., 1.,
          255., 255., 255., 0., 0., 0., 1., 1., 1., 0., 0., 0., 0., 0.,
          0., 0., 0., 0., 0., 0., 0., 0., 0., 0., 0., 0., 0., 0., 0., 0.,
          0., 0., 0., 0., 0., 0., 0., 0., 0., 0., 0., 0., 0., 0., 0., 0.,
          0., 0., 0., 0., 0., 0., 0., 0., 0., 0., 0., 0., 0., 0., 0., 0.,
          0., 0., 0., 0., 2., 2., 2., 0., 0., 0., 2., 2., 2., 0., 0., 0.,
          2., 2., 2., 0., 0., 0., 255., 255., 255., 1., 1., 1., 1., 1.,
          1., 1., 1., 1., 0., 0., 0., 0., 0., 0., 0., 0., 0., 0., 0., 0.,
          0., 0., 0., 0., 0., 0., 0., 0., 0., 0., 0., 0., 0., 0., 0., 0.,
          0., 0., 0., 0., 0., 0., 0., 0., 0., 0., 0., 0., 0., 0., 0., 0.,
          0., 0., 0., 0., 0., 0., 0., 0., 0., 0., 0., 0., 0., 0., 0., 0.,
          0., 0., 0., 2., 2., 2., 3., 3., 3., 5., 5., 5., 253., 253.,
          253., 2., 2., 2., 1., 1., 1., 1., 1., 1., 1., 1., 1., 0., 0.,
          0., 0., 0., 0., 0., 0., 0., 0., 0., 0., 0., 0., 0., 0., 0., 0.,
          0., 0., 0., 0., 0., 0., 0., 0., 0., 0., 0., 0., 0., 0., 0., 0.,
          0., 0., 0., 0., 0., 0., 0., 0., 0., 0., 0., 0., 0., 0., 0., 0.,
          0., 2., 2., 2., 3., 3., 3., 0., 0., 0., 0., 0., 0., 0., 0., 0.,
          0., 0., 0., 254., 254., 254., 0., 0., 0., 1., 1., 1., 1., 1.,
          1., 1., 1., 1., 1., 1., 1., 0., 0., 0., 0., 0., 0., 0., 0., 0.,
          0., 0., 0., 0., 0., 0., 0., 0., 0., 0., 0., 0., 0., 0., 0., 0.,
          0., 0., 0., 0., 0., 0., 0., 0., 0., 0., 0., 0., 0., 0., 0., 0.,
          0., 0., 0., 0., 0., 0., 0., 0., 0., 0., 0., 0., 0., 2., 2., 2.,
          3., 3., 3., 0., 0., 0., 255., 255., 255., 2., 2., 2., 0., 0.,
          0., 1., 1., 1., 1., 1., 1., 1., 1., 1., 1., 1., 1., 0., 0., 0.,
          0., 0., 0., 0., 0., 0., 0., 0., 0., 0., 0., 0., 0., 0., 0., 0.,
          0., 0., 0., 0., 0., 0., 0., 0., 0., 0., 0., 0., 0., 0., 0., 0.,
          0., 0., 0., 0., 0., 0., 0., 0., 0., 0., 0., 0., 0., 3., 3., 3.,
          0., 0., 0., 0., 0., 0., 0., 0., 0., 2., 2., 2., 255., 255.,
          255., 0., 0., 0., 2., 2., 2., 0., 0., 0., 1., 1., 1., 1., 1.,
          1., 1., 1., 1., 0., 0., 0., 0., 0., 0., 0., 0., 0., 0., 0., 0.,
          0., 0., 0., 0., 0., 0., 0., 0., 0., 0., 0., 0., 0., 0., 0., 0.,
          0., 0., 0., 0., 0., 0., 0., 0., 0., 0., 0., 0., 0., 0., 0., 0.,
          0., 0., 0., 0., 0., 0., 0., 2., 2., 2., 0., 0., 0., 2., 2., 2.,
          0., 0., 0., 1., 1., 1., 8., 8., 8., 0., 0., 0., 0., 0., 0., 1.,
          1., 1., 1., 1., 1., 1., 1., 1., 0., 0., 0., 0., 0., 0., 0., 0.,
          0., 0., 0., 0., 0., 0., 0., 0., 0., 0., 0., 0., 0., 0., 0., 0.,
          0., 0., 0., 0., 0., 0., 0., 0., 0., 0., 0., 0., 0., 0., 0., 0.,
          0., 0., 0., 0., 0., 0., 0., 0., 1., 1., 1., 0., 0., 0., 0., 0.,
          0., 1., 1., 1., 3., 3., 3., 0., 0., 0., 0., 0., 0., 2., 2., 2.,
          0., 0., 0., 1., 1., 1., 1., 1., 1., 1., 1., 1., 0., 0., 0., 0.,
          0., 0., 0., 0., 0., 0., 0., 0., 0., 0., 0., 0., 0., 0., 0., 0.,
          0., 0., 0., 0., 0., 0., 0., 0., 0., 0., 0., 0., 0., 0., 0., 0.,
          0., 0., 0., 0., 0., 0., 0., 0., 0., 0., 0., 0., 0., 0., 0., 0.,
          0., 0., 0., 0., 0., 0., 0., 0., 0., 0., 0., 0., 0., 0., 0., 0.,
          0., 0., 0., 0., 0., 0., 0., 0., 0., 0., 0., 0., 0., 0., 0., 0.,
          0., 0., 0., 0., 0., 0., 0., 0., 0., 0., 0., 0., 0., 0., 0., 0.,
          0., 0., 0., 0., 0., 0., 0., 0., 0., 0., 0., 0., 0., 0., 0., 0.,
          0., 0., 0., 0., 0., 0., 0., 0., 0., 0., 0., 0., 0., 0., 0., 0.,
          0., 0., 0., 0., 0., 0., 0., 0., 0., 0., 0., 0., 0., 0., 0., 0.,
          0., 0., 0., 0., 0., 0., 0., 0., 0., 0., 0., 0., 0., 0., 0., 0.,
          0., 0., 0., 0., 0., 0., 0., 0., 0., 0., 0., 0., 0., 0., 0., 0.,
          0., 0., 0., 0., 0., 0., 0., 0., 0., 0., 0., 0., 0., 0., 0., 0.,
          0., 0., 0., 0., 0., 0., 0., 0., 0., 0., 0., 0., 0., 0., 0., 0.,
          0., 0., 0., 0., 0., 0., 0., 0., 0., 0., 0., 0., 0., 0., 0., 0.,
          0., 0., 0., 0., 0., 0., 0., 0., 0., 0., 0., 0., 0., 0., 0., 0.,
          0., 0., 0., 0., 0., 0., 0., 0., 0., 0., 0., 0., 0., 0., 0., 0.,
          0., 0., 0., 0., 0., 0., 0., 0., 0., 0., 0., 0., 0., 0., 0., 0.,
          0., 0., 0., 0., 0., 0., 0., 0., 0., 0., 0., 0., 0., 0., 0., 0.,
          0., 0., 0., 0., 0., 0., 0., 0., 0., 0., 0., 0., 0., 0., 0., 0.,
          0., 0., 0., 0., 0., 0., 0., 0., 0., 0., 0., 0., 0., 0., 0., 0.,
          0., 0., 0., 0., 0., 0., 0., 0., 0., 0., 0., 0., 0., 0., 0., 0.,
          0., 0., 0., 0., 0., 0., 0., 0., 0., 0., 0., 0., 0., 0., 0., 0.,
          0., 0., 0., 0. ]
      - [ 0., 0., 0., 0., 0., 0., 0., 0., 0., 0., 0., 0., 0., 0., 0., 0.,
          0., 0., 0., 0., 0., 0., 0., 0., 0., 0., 0., 1., 1., 1., 0., 0.,
          0., 0., 0., 0., 0., 0., 0., 0., 0., 0., 0., 0., 0., 1., 1., 1.,
          0., 0., 0., 0., 0., 0., 0., 0., 0., 0., 0., 0., 0., 0., 0., 0.,
          0., 0., 0., 0., 0., 0., 0., 0., 0., 0., 0., 0., 0., 0., 0., 0.,
          0., 0., 0., 0., 0., 0., 0., 0., 0., 0., 0., 0., 0., 0., 0., 0.,
          0., 0., 0., 0., 0., 0., 0., 0., 0., 0., 0., 0., 0., 0., 0., 0.,
          0., 0., 0., 0., 0., 1., 1., 1., 0., 0., 0., 2., 2., 2., 1., 1.,
          1., 0., 0., 0., 0., 0., 0., 0., 0., 0., 0., 0., 0., 0., 0., 0.,
          0., 0., 0., 0., 0., 0., 0., 0., 0., 0., 0., 0., 0., 0., 0., 0.,
          0., 0., 0., 0., 0., 0., 0., 0., 0., 0., 0., 0., 0., 0., 0., 0.,
          0., 0., 0., 0., 0., 0., 0., 0., 0., 0., 0., 0., 0., 0., 0., 0.,
          0., 0., 0., 254., 254., 254., 2., 2., 2., 3., 3., 3., 0., 0.,
          0., 0., 0., 0., 0., 0., 0., 0., 0., 0., 0., 0., 0., 0., 0., 0.,
          0., 0., 0., 0., 0., 0., 0., 0., 0., 0., 0., 0., 0., 0., 0., 0.,
          0., 0., 0., 0., 0., 0., 0., 0., 0., 0., 0., 0., 0., 0., 0., 0.,
          0., 0., 0., 0., 0., 0., 0., 0., 0., 0., 0., 0., 0., 0., 0., 0.,
          0., 0., 0., 0., 0., 0., 255., 255., 255., 255., 255., 255.,
          252., 252., 252., 252., 252., 252., 255., 255., 255., 1., 1.,
          1., 0., 0., 0., 2., 2., 2., 0., 0., 0., 0., 0., 0., 0., 0., 0.,
          0., 0., 0., 0., 0., 0., 0., 0., 0., 0., 0., 0., 0., 0., 0., 0.,
          0., 0., 0., 0., 0., 0., 0., 0., 0., 0., 0., 0., 0., 0., 0., 0.,
          0., 0., 0., 0., 0., 0., 0., 0., 0., 0., 0., 0., 0., 0., 0., 0.,
          0., 0., 0., 0., 0., 0., 0., 0., 0., 0., 0., 0., 255., 255.,
          255., 253., 253., 253., 0., 0., 0., 0., 0., 0., 1., 1., 1., 0.,
          0., 0., 0., 0., 0., 0., 0., 0., 0., 0., 0., 0., 0., 0., 0., 0.,
          0., 0., 0., 0., 0., 0., 0., 0., 0., 0., 0., 0., 0., 0., 0., 0.,
          0., 0., 0., 0., 0., 0., 0., 0., 0., 0., 0., 0., 0., 0., 0., 0.,
          0., 0., 0., 0., 0., 0., 0., 0., 0., 0., 0., 0., 0., 0., 2., 2.,
          2., 2., 2., 2., 1., 1., 1., 255., 255., 255., 0., 0., 0., 4.,
          4., 4., 0., 0., 0., 0., 0., 0., 0., 0., 0., 0., 0., 0., 0., 0.,
          0., 0., 0., 0., 0., 0., 0., 0., 0., 0., 0., 0., 0., 0., 0., 0.,
          0., 0., 0., 0., 0., 0., 0., 0., 0., 0., 0., 0., 0., 0., 0., 0.,
          0., 0., 0., 0., 0., 0., 0., 0., 0., 0., 0., 0., 0., 0., 0., 0.,
          0., 0., 0., 0., 0., 0., 0., 0., 0., 0., 0., 0., 0., 255., 255.,
          255., 0., 0., 0., 0., 0., 0., 2., 2., 2., 0., 0., 0., 0., 0.,
          0., 0., 0., 0., 0., 0., 0., 0., 0., 0., 0., 0., 0., 0., 0., 0.,
          0., 0., 0., 0., 0., 0., 0., 0., 0., 0., 0., 0., 0., 0., 0., 0.,
          0., 0., 0., 0., 0., 0., 0., 0., 0., 0., 0., 0., 0., 0., 0., 0.,
          0., 0., 0., 0., 0., 0., 0., 0., 0., 0., 2., 2., 2., 1., 1., 1.,
          0., 0., 0., 254., 254., 254., 6., 6., 6., 0., 0., 0., 0., 0.,
          0., 0., 0., 0., 0., 0., 0., 0., 0., 0., 0., 0., 0., 0., 0., 0.,
          0., 0., 0., 0., 0., 0., 0., 0., 0., 0., 0., 0., 0., 0., 0., 0.,
          0., 0., 0., 0., 0., 0., 0., 0., 0., 0., 0., 0., 0., 0., 0., 0.,
          0., 0., 0., 0., 0., 0., 0., 0., 0., 0., 0., 0., 0., 1., 1., 1.,
          0., 0., 0., 1., 1., 1., 1., 1., 1., 255., 255., 255., 0., 0.,
          0., 0., 0., 0., 0., 0., 0., 0., 0., 0., 0., 0., 0., 0., 0., 0.,
          0., 0., 0., 0., 0., 0., 0., 0., 0., 0., 0., 0., 0., 0., 0., 0.,
          0., 0., 0., 0., 0., 0., 0., 0., 0., 0., 0., 0., 0., 0., 0., 0.,
          0., 0., 0., 0., 0., 0., 0., 0., 0., 0., 0., 0., 0., 0., 0., 0.,
          0., 0., 0., 0., 0., 0., 255., 255., 255., 255., 255., 255.,
          251., 251., 251., 0., 0., 0., 4., 4., 4., 0., 0., 0., 2., 2.,
          2., 0., 0., 0., 0., 0., 0., 0., 0., 0., 0., 0., 0., 0., 0., 0.,
          0., 0., 0., 0., 0., 0., 0., 0., 0., 0., 0., 0., 0., 0., 0., 0.,
          0., 0., 0., 0., 0., 0., 0., 0., 0., 0., 0., 0., 0., 0., 0., 0.,
          0., 0., 0., 0., 0., 0., 0., 0., 0., 0., 0., 0., 0., 0., 0., 0.,
          0., 0., 0., 0., 0., 0., 255., 255., 255., 1., 1., 1., 0., 0.,
          0., 6., 6., 6., 0., 0., 0., 0., 0., 0., 0., 0., 0., 0., 0., 0.,
          0., 0., 0., 0., 0., 0., 0., 0., 0., 0., 0., 0., 0., 0., 0., 0.,
          0., 0., 0., 0., 0., 0., 0., 0., 0., 0., 0., 0., 0., 0., 0., 0.,
          0., 0., 0., 0., 0., 0., 0., 0., 0., 0., 0., 0., 0., 0., 0., 0.,
          0., 0., 0., 0., 0., 0., 0., 0., 0., 0., 0., 0., 0., 0., 0.,
          254., 254., 254., 0., 0., 0., 0., 0., 0., 0., 0., 0., 0., 0.,
          0., 0., 0., 0., 0., 0., 0., 0., 0., 0., 0., 0., 0., 0., 0., 0.,
          0., 0., 0., 0., 0., 0., 0., 0., 0., 0., 0., 0., 0., 0., 0., 0.,
          0., 0., 0., 0., 0., 0., 0., 0., 0., 0., 0., 0., 0., 0., 0., 0.,
          0., 0., 0., 0., 0., 0., 0., 0., 0., 0., 1., 1., 1., 1., 1., 1.,
          0., 0., 0., 0., 0., 0., 255., 255., 255., 0., 0., 0., 0., 0.,
          0., 2., 2., 2., 0., 0., 0., 0., 0., 0., 0., 0., 0., 0., 0., 0.,
          0., 0., 0., 0., 0., 0., 0., 0., 0., 0., 0., 0., 0., 0., 0., 0.,
          0., 0., 0., 0., 0., 0., 0., 0., 0., 0., 0., 0., 0., 0., 0., 0.,
          0., 0., 0., 0., 0., 0., 0., 0., 0., 0., 0., 0., 0., 0., 0., 0.,
          0., 0., 0., 0., 0., 0., 2., 2., 2., 0., 0., 0., 254., 254.,
          254., 2., 2., 2., 0., 0., 0., 1., 1., 1., 0., 0., 0., 0., 0.,
          0., 0., 0., 0., 0., 0., 0., 0., 0., 0., 0., 0., 0., 0., 0., 0.,
          0., 0., 0., 0., 0., 0., 0., 0., 0., 0., 0., 0., 0., 0., 0., 0.,
          0., 0., 0., 0., 0., 0., 0., 0., 0., 0., 0., 0., 0., 0., 0., 0.,
          0., 0., 0., 0., 0., 0., 0., 1., 1., 1., 0., 0., 0., 0., 0., 0.,
          0., 0., 0., 255., 255., 255., 1., 1., 1., 0., 0., 0., 0., 0.,
          0., 0., 0., 0., 0., 0., 0., 0., 0., 0., 0., 0., 0., 0., 0., 0.,
          0., 0., 0., 0., 0., 0., 0., 0., 0., 0., 0., 0., 0., 0., 0., 0.,
          0., 0., 0., 0., 0., 0., 0., 0., 0., 0., 0., 0., 0., 0., 0., 0.,
          0., 0., 0., 0., 0., 0., 0., 0., 0., 0., 0., 0., 0., 0., 0., 0.,
          1., 1., 1., 0., 0., 0., 255., 255., 255., 253., 253., 253., 0.,
          0., 0., 0., 0., 0., 2., 2., 2., 0., 0., 0., 0., 0., 0., 0., 0.,
          0., 0., 0., 0., 0., 0., 0., 0., 0., 0., 0., 0., 0., 0., 0., 0.,
          0., 0., 0., 0., 0., 0., 0., 0., 0., 0., 0., 0., 1., 1., 1., 1.,
          1., 1., 0., 0., 0., 0., 0., 0., 2., 2., 2., 0., 0., 0., 3., 3.,
          3., 0., 0., 0., 1., 1., 1., 0., 0., 0., 255., 255., 255., 255.,
          255., 255., 2., 2., 2., 0., 0., 0., 0., 0., 0., 0., 0., 0., 0.,
          0., 0., 0., 0., 0., 0., 0., 0., 0., 0., 0., 0., 0., 0., 0., 0.,
          0., 0., 0., 0., 0., 0., 0., 0., 0., 0., 0., 0., 0., 0., 0., 0.,
          0., 0., 0., 0., 0., 0., 0., 0., 0., 4., 4., 4., 1., 1., 1., 0.,
          0., 0., 1., 1., 1., 0., 0., 0., 0., 0., 0., 0., 0., 0., 255.,
          255., 255., 254., 254., 254., 0., 0., 0., 0., 0., 0., 1., 1.,
          1., 1., 1., 1., 0., 0., 0., 0., 0., 0., 0., 0., 0., 0., 0., 0.,
          0., 0., 0., 0., 0., 0., 0., 0., 0., 0., 0., 0., 0., 0., 0., 0.,
          0., 0., 0., 0., 0., 0., 0., 0., 0., 0., 0., 2., 2., 2., 0., 0.,
          0., 0., 0., 0., 0., 0., 0., 0., 0., 0., 1., 1., 1., 255., 255.,
          255., 255., 255., 255., 255., 255., 255., 0., 0., 0., 0., 0.,
          0., 2., 2., 2., 0., 0., 0., 3., 3., 3., 3., 3., 3., 0., 0., 0.,
          0., 0., 0., 0., 0., 0., 0., 0., 0., 0., 0., 0., 0., 0., 0., 0.,
          0., 0., 0., 0., 0., 0., 0., 0., 0., 0., 0., 0., 0., 0., 0., 0.,
          0., 0., 0., 0., 1., 1., 1., 0., 0., 0., 0., 0., 0., 1., 1., 1.,
          0., 0., 0., 0., 0., 0., 2., 2., 2., 0., 0., 0., 0., 0., 0., 3.,
          3., 3., 0., 0., 0., 0., 0., 0., 0., 0., 0., 0., 0., 0., 0., 0.,
          0., 0., 0., 0., 0., 0., 0., 0., 0., 0., 0., 0., 0., 0., 0., 0.,
          0., 0., 0., 0., 0., 0., 0., 0., 0., 0., 0., 0., 0., 0., 0., 0.,
          0., 0., 0., 0., 0., 0., 0., 0., 0., 0., 0., 2., 2., 2., 0., 0.,
          0., 0., 0., 0., 2., 2., 2., 2., 2., 2., 0., 0., 0., 0., 0., 0.,
          1., 1., 1., 0., 0., 0., 1., 1., 1., 0., 0., 0., 2., 2., 2., 3.,
          3., 3., 0., 0., 0., 1., 1., 1., 0., 0., 0., 0., 0., 0., 0., 0.,
          0., 0., 0., 0., 0., 0., 0., 0., 0., 0., 0., 0., 0., 0., 0., 0.,
          0., 0., 0., 0., 0., 0., 0., 0., 0., 0., 0., 0., 0., 0., 0., 2.,
          2., 2., 0., 0., 0., 2., 2., 2., 0., 0., 0., 0., 0., 0., 0., 0.,
          0., 1., 1., 1., 1., 1., 1., 1., 1., 1., 0., 0., 0., 4., 4., 4.,
          0., 0., 0., 0., 0., 0., 0., 0., 0., 2., 2., 2., 0., 0., 0., 0.,
          0., 0., 0., 0., 0., 0., 0., 0., 0., 0., 0., 0., 0., 0., 0., 0.,
          0., 0., 0., 0., 0., 0., 0., 0., 0., 0., 0., 0., 0., 0., 0., 0.,
          1., 1., 1., 0., 0., 0., 1., 1., 1., 0., 0., 0., 2., 2., 2., 0.,
          0., 0., 3., 3., 3., 0., 0., 0., 0., 0., 0., 2., 2., 2., 0., 0.,
          0., 0., 0., 0., 1., 1., 1., 1., 1., 1., 1., 1., 1., 0., 0., 0.,
          0., 0., 0., 0., 0., 0., 0., 0., 0., 0., 0., 0., 0., 0., 0., 0.,
          0., 0., 0., 0., 0., 0., 0., 0., 0., 0., 0., 0., 0., 0., 0., 0.,
          0., 0., 0., 0., 0., 0., 0., 2., 2., 2., 0., 0., 0., 0., 0., 0.,
          2., 2., 2., 0., 0., 0., 0., 0., 0., 1., 1., 1., 2., 2., 2., 0.,
          0., 0., 0., 0., 0., 2., 2., 2., 0., 0., 0., 0., 0., 0., 2., 2.,
          2., 0., 0., 0., 0., 0., 0., 0., 0., 0., 0., 0., 0., 0., 0., 0.,
          0., 0., 0., 0., 0., 0., 0., 0., 0., 0., 0., 0., 0., 0., 0., 0.,
          0., 0., 0., 0., 0., 0., 0., 0., 0., 0., 0., 0., 0., 0., 0., 0.,
          0., 0., 0., 0., 0., 0., 0., 0., 0., 0., 0., 0., 0., 0., 0., 0.,
          0., 0., 0., 0., 0., 0., 0., 0., 0., 0., 0., 0., 0., 0., 0., 0.,
          0., 0., 0., 0., 0., 0., 0., 0., 0., 0., 0., 0., 0., 0., 0., 0.,
          0., 0., 0., 0., 0., 0., 0., 0., 0., 0., 0., 0., 0., 0., 0., 0.,
          0., 0., 0., 0., 0., 0., 0., 0., 0., 0., 0., 0., 0., 0., 0., 0.,
          0., 0., 0., 0., 0., 0., 0., 0., 0., 0., 0., 0., 0., 0., 0., 0.,
          0., 0., 0., 0., 0., 0., 0., 0., 0., 0., 0., 0., 0., 0., 0., 0.,
          0., 0., 0., 0., 0., 0., 0., 0., 0., 0., 0., 0., 0., 0., 0., 0.,
          0., 0., 0., 0., 0., 0., 0., 0., 0., 0., 0., 0., 0., 0., 0., 0.,
          0., 0., 0., 0., 0., 0., 0., 0., 0., 0., 0., 0., 0., 0., 0., 0.,
          0., 0., 0., 0., 0., 0., 0., 0., 0., 0., 0., 0., 0., 0., 0., 0.,
          0., 0., 0., 0., 0., 0., 0., 0., 0., 0., 0., 0., 0., 0., 0., 0.,
          0., 0., 0., 0., 0., 0., 0., 0., 0., 0., 0., 0., 0., 0., 0., 0.,
          0., 0., 0., 0., 0., 0., 0., 0., 0., 0., 0., 0., 0., 0., 0., 0.,
          0., 0., 0., 0., 0., 0., 0., 0., 0., 0., 0., 0., 0., 0., 0., 0.,
          0., 0., 0., 0., 0., 0., 0., 0., 0., 0., 0., 0., 0., 0., 0., 0.,
          0., 0., 0., 0., 0., 0., 0., 0., 0., 0., 0., 0., 0., 0., 0., 0.,
          0., 0., 0., 0., 0., 0., 0., 0., 0., 0., 0., 0., 0., 0., 0., 0.,
          0., 0., 0., 0., 0., 0., 0., 0., 0., 0., 0., 0., 0., 0., 0., 0.,
          0., 0., 0., 0., 0., 0., 0., 0., 0., 0., 0., 0., 0., 0., 0., 0.,
          0., 0., 0., 0., 0., 0., 0., 0. ]
      - [ 0., 0., 0., 4., 4., 4., 0., 0., 0., 0., 0., 0., 1., 1., 1., 0.,
          0., 0., 0., 0., 0., 1., 1., 1., 0., 0., 0., 1., 1., 1., 2., 2.,
          2., 0., 0., 0., 0., 0., 0., 5., 5., 5., 0., 0., 0., 3., 3., 3.,
          2., 2., 2., 0., 0., 0., 3., 3., 3., 0., 0., 0., 0., 0., 0., 1.,
          1., 1., 0., 0., 0., 0., 0., 0., 0., 0., 0., 0., 0., 0., 0., 0.,
          0., 0., 0., 0., 1., 1., 1., 0., 0., 0., 5., 5., 5., 0., 0., 0.,
          0., 0., 0., 1., 1., 1., 1., 1., 1., 0., 0., 0., 5., 5., 5., 1.,
          1., 1., 0., 0., 0., 0., 0., 0., 0., 0., 0., 0., 0., 0., 0., 0.,
          0., 0., 0., 0., 3., 3., 3., 4., 4., 4., 2., 2., 2., 0., 0., 0.,
          1., 1., 1., 0., 0., 0., 0., 0., 0., 0., 0., 0., 0., 0., 0., 0.,
          0., 0., 0., 0., 0., 0., 0., 0., 0., 0., 0., 4., 4., 4., 0., 0.,
          0., 0., 0., 0., 0., 0., 0., 6., 6., 6., 0., 0., 0., 0., 0., 0.,
          2., 2., 2., 0., 0., 0., 2., 2., 2., 3., 3., 3., 0., 0., 0., 0.,
          0., 0., 1., 1., 1., 5., 5., 5., 0., 0., 0., 1., 1., 1., 2., 2.,
          2., 0., 0., 0., 1., 1., 1., 0., 0., 0., 1., 1., 1., 2., 2., 2.,
          0., 0., 0., 0., 0., 0., 0., 0., 0., 0., 0., 0., 0., 0., 0., 0.,
          0., 0., 2., 2., 2., 3., 3., 3., 0., 0., 0., 0., 0., 0., 4., 4.,
          4., 0., 0., 0., 1., 1., 1., 253., 253., 253., 255., 255., 255.,
          252., 252., 252., 255., 255., 255., 255., 255., 255., 254.,
          254., 254., 250., 250., 250., 5., 5., 5., 1., 1., 1., 0., 0.,
          0., 0., 0., 0., 1., 1., 1., 4., 4., 4., 0., 0., 0., 0., 0., 0.,
          0., 0., 0., 0., 0., 0., 0., 0., 0., 0., 0., 0., 3., 3., 3., 0.,
          0., 0., 0., 0., 0., 0., 0., 0., 5., 5., 5., 0., 0., 0., 0., 0.,
          0., 255., 255., 255., 255., 255., 255., 254., 254., 254., 0.,
          0., 0., 1., 1., 1., 2., 2., 2., 0., 0., 0., 5., 5., 5., 0., 0.,
          0., 253., 253., 253., 1., 1., 1., 3., 3., 3., 0., 0., 0., 0.,
          0., 0., 0., 0., 0., 3., 3., 3., 0., 0., 0., 0., 0., 0., 0., 0.,
          0., 0., 0., 0., 0., 0., 0., 0., 0., 0., 1., 1., 1., 0., 0., 0.,
          0., 0., 0., 1., 1., 1., 5., 5., 5., 255., 255., 255., 251.,
          251., 251., 0., 0., 0., 2., 2., 2., 0., 0., 0., 1., 1., 1., 1.,
          1., 1., 0., 0., 0., 0., 0., 0., 3., 3., 3., 255., 255., 255.,
          1., 1., 1., 0., 0., 0., 1., 1., 1., 0., 0., 0., 2., 2., 2., 0.,
          0., 0., 0., 0., 0., 0., 0., 0., 0., 0., 0., 0., 0., 0., 0., 0.,
          0., 1., 1., 1., 0., 0., 0., 0., 0., 0., 0., 0., 0., 4., 4., 4.,
          0., 0., 0., 253., 253., 253., 2., 2., 2., 0., 0., 0., 3., 3.,
          3., 2., 2., 2., 0., 0., 0., 3., 3., 3., 0., 0., 0., 0., 0., 0.,
          0., 0., 0., 254., 254., 254., 0., 0., 0., 0., 0., 0., 1., 1.,
          1., 0., 0., 0., 0., 0., 0., 0., 0., 0., 1., 1., 1., 0., 0., 0.,
          0., 0., 0., 0., 0., 0., 0., 0., 0., 0., 0., 0., 0., 0., 0., 1.,
          1., 1., 0., 0., 0., 1., 1., 1., 2., 2., 2., 254., 254., 254.,
          0., 0., 0., 1., 1., 1., 0., 0., 0., 0., 0., 0., 0., 0., 0., 0.,
          0., 0., 1., 1., 1., 1., 1., 1., 0., 0., 0., 255., 255., 255.,
          3., 3., 3., 0., 0., 0., 0., 0., 0., 1., 1., 1., 0., 0., 0., 0.,
          0., 0., 0., 0., 0., 0., 0., 0., 0., 0., 0., 0., 0., 0., 0., 0.,
          0., 0., 0., 0., 0., 0., 0., 0., 0., 0., 0., 0., 0., 0., 0., 0.,
          0., 0., 0., 0., 0., 0., 1., 1., 1., 4., 4., 4., 0., 0., 0., 0.,
          0., 0., 2., 2., 2., 0., 0., 0., 0., 0., 0., 3., 3., 3., 254.,
          254., 254., 0., 0., 0., 0., 0., 0., 1., 1., 1., 1., 1., 1., 1.,
          1., 1., 0., 0., 0., 0., 0., 0., 0., 0., 0., 0., 0., 0., 0., 0.,
          0., 0., 0., 0., 0., 0., 0., 0., 0., 0., 0., 0., 0., 0., 0., 0.,
          0., 0., 0., 0., 0., 0., 0., 0., 0., 0., 0., 0., 1., 1., 1., 0.,
          0., 0., 0., 0., 0., 3., 3., 3., 0., 0., 0., 0., 0., 0., 0., 0.,
          0., 249., 249., 249., 4., 4., 4., 0., 0., 0., 0., 0., 0., 1.,
          1., 1., 1., 1., 1., 0., 0., 0., 0., 0., 0., 0., 0., 0., 0., 0.,
          0., 0., 0., 0., 0., 0., 0., 0., 0., 0., 0., 0., 0., 0., 0., 0.,
          0., 0., 0., 0., 0., 0., 0., 0., 0., 0., 0., 0., 0., 0., 0., 0.,
          0., 0., 1., 1., 1., 0., 0., 0., 1., 1., 1., 5., 5., 5., 0., 0.,
          0., 6., 6., 6., 253., 253., 253., 255., 255., 255., 0., 0., 0.,
          0., 0., 0., 0., 0., 0., 1., 1., 1., 1., 1., 1., 0., 0., 0., 0.,
          0., 0., 0., 0., 0., 0., 0., 0., 0., 0., 0., 0., 0., 0., 0., 0.,
          0., 0., 0., 0., 0., 0., 0., 0., 0., 0., 0., 0., 0., 0., 0., 0.,
          0., 0., 0., 0., 0., 0., 1., 1., 1., 1., 1., 1., 0., 0., 0., 1.,
          1., 1., 0., 0., 0., 1., 1., 1., 247., 247., 247., 255., 255.,
          255., 0., 0., 0., 3., 3., 3., 0., 0., 0., 1., 1., 1., 1., 1.,
          1., 1., 1., 1., 0., 0., 0., 0., 0., 0., 0., 0., 0., 0., 0., 0.,
          0., 0., 0., 0., 0., 0., 0., 0., 0., 0., 0., 0., 0., 0., 0., 0.,
          0., 0., 0., 0., 0., 0., 0., 0., 0., 0., 0., 1., 1., 1., 1., 1.,
          1., 1., 1., 1., 6., 6., 6., 0., 0., 0., 3., 3., 3., 255., 255.,
          255., 4., 4., 4., 0., 0., 0., 1., 1., 1., 0., 0., 0., 1., 1.,
          1., 1., 1., 1., 1., 1., 1., 1., 1., 1., 0., 0., 0., 0., 0., 0.,
          0., 0., 0., 0., 0., 0., 0., 0., 0., 0., 0., 0., 0., 0., 0., 0.,
          0., 0., 0., 0., 0., 0., 0., 0., 0., 0., 0., 0., 0., 0., 1., 1.,
          1., 1., 1., 1., 1., 1., 1., 1., 1., 1., 0., 0., 0., 1., 1., 1.,
          0., 0., 0., 254., 254., 254., 1., 1., 1., 0., 0., 0., 0., 0.,
          0., 8., 8., 8., 1., 1., 1., 1., 1., 1., 2., 2., 2., 1., 1., 1.,
          0., 0., 0., 0., 0., 0., 0., 0., 0., 0., 0., 0., 0., 0., 0., 0.,
          0., 0., 0., 0., 0., 0., 0., 0., 0., 0., 0., 0., 0., 0., 0., 0.,
          0., 0., 0., 0., 1., 1., 1., 1., 1., 1., 1., 1., 1., 1., 1., 1.,
          0., 0., 0., 255., 255., 255., 255., 255., 255., 0., 0., 0., 0.,
          0., 0., 0., 0., 0., 5., 5., 5., 0., 0., 0., 1., 1., 1., 2., 2.,
          2., 2., 2., 2., 1., 1., 1., 0., 0., 0., 0., 0., 0., 0., 0., 0.,
          0., 0., 0., 0., 0., 0., 0., 0., 0., 0., 0., 0., 0., 0., 0., 0.,
          0., 0., 0., 0., 0., 0., 0., 0., 0., 0., 0., 1., 1., 1., 1., 1.,
          1., 1., 1., 1., 1., 1., 1., 0., 0., 0., 255., 255., 255., 0.,
          0., 0., 2., 2., 2., 1., 1., 1., 1., 1., 1., 0., 0., 0., 3., 3.,
          3., 1., 1., 1., 1., 1., 1., 1., 1., 1., 1., 1., 1., 0., 0., 0.,
          0., 0., 0., 0., 0., 0., 0., 0., 0., 0., 0., 0., 0., 0., 0., 0.,
          0., 0., 0., 0., 0., 1., 1., 1., 0., 0., 0., 3., 3., 3., 0., 0.,
          0., 0., 0., 0., 2., 2., 2., 1., 1., 1., 0., 0., 0., 255., 255.,
          255., 0., 0., 0., 0., 0., 0., 0., 0., 0., 1., 1., 1., 0., 0.,
          0., 0., 0., 0., 0., 0., 0., 0., 0., 0., 1., 1., 1., 4., 4., 4.,
          0., 0., 0., 1., 1., 1., 0., 0., 0., 0., 0., 0., 1., 1., 1., 0.,
          0., 0., 0., 0., 0., 0., 0., 0., 0., 0., 0., 1., 1., 1., 2., 2.,
          2., 0., 0., 0., 0., 0., 0., 4., 4., 4., 4., 4., 4., 0., 0., 0.,
          255., 255., 255., 0., 0., 0., 3., 3., 3., 2., 2., 2., 0., 0.,
          0., 2., 2., 2., 3., 3., 3., 4., 4., 4., 0., 0., 0., 2., 2., 2.,
          0., 0., 0., 0., 0., 0., 1., 1., 1., 0., 0., 0., 1., 1., 1., 3.,
          3., 3., 0., 0., 0., 0., 0., 0., 0., 0., 0., 0., 0., 0., 0., 0.,
          0., 0., 0., 0., 2., 2., 2., 1., 1., 1., 0., 0., 0., 0., 0., 0.,
          0., 0., 0., 255., 255., 255., 0., 0., 0., 0., 0., 0., 0., 0.,
          0., 1., 1., 1., 2., 2., 2., 0., 0., 0., 0., 0., 0., 0., 0., 0.,
          4., 4., 4., 1., 1., 1., 2., 2., 2., 1., 1., 1., 4., 4., 4., 0.,
          0., 0., 0., 0., 0., 2., 2., 2., 0., 0., 0., 0., 0., 0., 0., 0.,
          0., 0., 0., 0., 0., 0., 0., 4., 4., 4., 0., 0., 0., 0., 0., 0.,
          1., 1., 1., 2., 2., 2., 0., 0., 0., 2., 2., 2., 253., 253.,
          253., 4., 4., 4., 0., 0., 0., 3., 3., 3., 0., 0., 0., 0., 0.,
          0., 0., 0., 0., 4., 4., 4., 1., 1., 1., 0., 0., 0., 2., 2., 2.,
          0., 0., 0., 4., 4., 4., 0., 0., 0., 0., 0., 0., 3., 3., 3., 0.,
          0., 0., 0., 0., 0., 0., 0., 0., 0., 0., 0., 0., 0., 0., 0., 0.,
          0., 0., 0., 0., 0., 0., 0., 0., 0., 0., 2., 2., 2., 4., 4., 4.,
          253., 253., 253., 255., 255., 255., 253., 253., 253., 254.,
          254., 254., 252., 252., 252., 255., 255., 255., 255., 255.,
          255., 255., 255., 255., 253., 253., 253., 1., 1., 1., 255.,
          255., 255., 255., 255., 255., 3., 3., 3., 0., 0., 0., 0., 0.,
          0., 4., 4., 4., 0., 0., 0., 1., 1., 1., 0., 0., 0., 0., 0., 0.,
          0., 0., 0., 0., 0., 0., 0., 0., 0., 0., 0., 0., 1., 1., 1., 0.,
          0., 0., 0., 0., 0., 0., 0., 0., 0., 0., 0., 0., 0., 0., 5., 5.,
          5., 1., 1., 1., 1., 1., 1., 0., 0., 0., 2., 2., 2., 1., 1., 1.,
          0., 0., 0., 5., 5., 5., 0., 0., 0., 0., 0., 0., 0., 0., 0., 3.,
          3., 3., 0., 0., 0., 0., 0., 0., 2., 2., 2., 0., 0., 0., 0., 0.,
          0., 0., 0., 0., 0., 0., 0., 0., 0., 0., 0., 0., 0., 4., 4., 4.,
          0., 0., 0., 0., 0., 0., 0., 0., 0., 2., 2., 2., 3., 3., 3., 0.,
          0., 0., 0., 0., 0., 6., 6., 6., 1., 1., 1., 0., 0., 0., 3., 3.,
          3., 0., 0., 0., 1., 1., 1., 2., 2., 2., 0., 0., 0., 3., 3., 3.,
          0., 0., 0., 2., 2., 2., 2., 2., 2., 0., 0., 0., 0., 0., 0., 0.,
          0., 0., 0., 0., 0., 0., 0., 0., 0., 0., 0., 0., 0., 0., 0., 0.,
          0., 0., 0., 0., 0., 0., 0., 1., 1., 1., 0., 0., 0., 1., 1., 1.,
          0., 0., 0., 0., 0., 0., 0., 0., 0., 1., 1., 1., 0., 0., 0., 1.,
          1., 1., 0., 0., 0., 3., 3., 3., 3., 3., 3., 0., 0., 0., 3., 3.,
          3., 0., 0., 0., 2., 2., 2., 0., 0., 0., 0., 0., 0., 1., 1., 1.,
          0., 0., 0., 0., 0., 0., 0., 0., 0., 0., 0., 0., 0., 0., 0., 0.,
          0., 0., 0., 0., 0., 0., 0., 0., 0., 0., 0., 0., 0., 0., 0., 0.,
          0., 0., 0., 0., 0., 0., 0., 0., 0., 0., 0., 0., 0., 0., 0., 0.,
          0., 0., 0., 0., 0., 0., 0., 0., 0., 0., 0., 0., 0., 0., 0., 0.,
          0., 0., 0., 0., 0., 0., 0., 0., 0., 0., 0., 0., 0., 0., 0., 0.,
          0., 0., 0., 0., 0., 0., 0., 0., 0., 0., 0., 0., 0., 0., 0., 0.,
          0., 0., 0., 0., 0., 0., 0., 0., 0., 0., 0., 0., 0., 0., 0., 0.,
          0., 0., 0., 0., 0., 0., 0., 0., 0., 0., 0., 0., 0., 0., 0., 0.,
          0., 0., 0., 0., 0., 0., 0., 0., 0., 0., 0., 0., 0., 0., 0., 0.,
          0., 0., 0., 0., 0., 0., 0., 0., 0., 0., 0., 0., 0., 0., 0., 0.,
          0., 0., 0., 0., 0., 0., 0., 0., 0., 0., 0., 0., 0., 0., 0., 0.,
          0., 0., 0., 0., 0., 0., 0., 0., 0., 0., 0., 0., 0., 0., 0., 0.,
          0., 0., 0., 0., 0., 0., 0., 0., 0., 0., 0., 0., 0., 0., 0., 0.,
          0., 0., 0., 0., 0., 0., 0., 0., 0., 0., 0., 0., 0., 0., 0., 0.,
          0., 0., 0., 0., 0., 0., 0., 0., 0., 0., 0., 0., 0., 0., 0., 0.,
          0., 0., 0., 0., 0., 0., 0., 0., 0., 0., 0., 0., 0., 0., 0., 0.,
          0., 0., 0., 0., 0., 0., 0., 0., 0., 0., 0., 0., 0., 0., 0., 0.,
          0., 0., 0., 0., 0., 0., 0., 0., 0., 0., 0., 0., 0., 0., 0., 0.,
          0., 0., 0., 0., 0., 0., 0., 0., 0., 0., 0., 0., 0., 0., 0., 0.,
          0., 0., 0., 0., 0., 0., 0., 0., 0., 0., 0., 0., 0., 0., 0., 0.,
          0., 0., 0., 0., 0., 0., 0., 0., 0., 0., 0., 0., 0., 0., 0., 0.,
          0., 0., 0., 0., 0., 0., 0., 0., 0., 0., 0., 0., 0., 0., 0., 0.,
          0., 0. ]
      - [ 1., 1., 1., 0., 0., 0., 0., 0., 0., 0., 0., 0., 3., 3., 3., 0.,
          0., 0., 0., 0., 0., 1., 1., 1., 0., 0., 0., 4., 4., 4., 0., 0.,
          0., 1., 1., 1., 0., 0., 0., 0., 0., 0., 0., 0., 0., 1., 1., 1.,
          0., 0., 0., 0., 0., 0., 0., 0., 0., 0., 0., 0., 0., 0., 0., 0.,
          0., 0., 0., 0., 0., 0., 0., 0., 0., 0., 0., 0., 0., 0., 0., 0.,
          0., 0., 0., 0., 1., 1., 1., 0., 0., 0., 0., 0., 0., 0., 0., 0.,
          0., 0., 0., 0., 0., 0., 3., 3., 3., 0., 0., 0., 2., 2., 2., 0.,
          0., 0., 0., 0., 0., 0., 0., 0., 2., 2., 2., 3., 3., 3., 3., 3.,
          3., 0., 0., 0., 0., 0., 0., 0., 0., 0., 0., 0., 0., 0., 0., 0.,
          0., 0., 0., 0., 0., 0., 0., 0., 0., 0., 0., 0., 0., 0., 0., 0.,
          0., 0., 0., 0., 0., 0., 0., 0., 0., 0., 0., 3., 3., 3., 3., 3.,
          3., 1., 1., 1., 0., 0., 0., 1., 1., 1., 0., 0., 0., 1., 1., 1.,
          0., 0., 0., 0., 0., 0., 2., 2., 2., 3., 3., 3., 0., 0., 0., 0.,
          0., 0., 2., 2., 2., 0., 0., 0., 0., 0., 0., 0., 0., 0., 0., 0.,
          0., 0., 0., 0., 0., 0., 0., 0., 0., 0., 0., 0., 0., 0., 0., 0.,
          0., 0., 0., 0., 0., 0., 0., 0., 0., 0., 0., 0., 3., 3., 3., 0.,
          0., 0., 0., 0., 0., 0., 0., 0., 1., 1., 1., 0., 0., 0., 4., 4.,
          4., 253., 253., 253., 255., 255., 255., 255., 255., 255., 254.,
          254., 254., 252., 252., 252., 5., 5., 5., 0., 0., 0., 0., 0.,
          0., 0., 0., 0., 0., 0., 0., 0., 0., 0., 0., 0., 0., 0., 0., 0.,
          0., 0., 0., 0., 0., 0., 0., 0., 0., 0., 0., 0., 0., 0., 0., 0.,
          0., 0., 0., 0., 0., 0., 0., 0., 0., 0., 0., 0., 0., 0., 1., 1.,
          1., 1., 1., 1., 0., 0., 0., 0., 0., 0., 0., 0., 0., 0., 0., 0.,
          0., 0., 0., 0., 0., 0., 1., 1., 1., 1., 1., 1., 253., 253.,
          253., 3., 3., 3., 0., 0., 0., 2., 2., 2., 0., 0., 0., 0., 0.,
          0., 0., 0., 0., 0., 0., 0., 0., 0., 0., 0., 0., 0., 0., 0., 0.,
          0., 0., 0., 0., 0., 0., 0., 0., 0., 0., 0., 0., 0., 0., 0., 0.,
          0., 0., 5., 5., 5., 0., 0., 0., 1., 1., 1., 0., 0., 0., 0., 0.,
          0., 4., 4., 4., 0., 0., 0., 1., 1., 1., 1., 1., 1., 0., 0., 0.,
          0., 0., 0., 255., 255., 255., 0., 0., 0., 0., 0., 0., 0., 0.,
          0., 0., 0., 0., 0., 0., 0., 0., 0., 0., 0., 0., 0., 0., 0., 0.,
          0., 0., 0., 0., 0., 0., 0., 0., 0., 0., 0., 0., 0., 0., 0., 0.,
          0., 0., 0., 0., 0., 1., 1., 1., 0., 0., 0., 0., 0., 0., 0., 0.,
          0., 2., 2., 2., 0., 0., 0., 0., 0., 0., 1., 1., 1., 0., 0., 0.,
          0., 0., 0., 0., 0., 0., 0., 0., 0., 255., 255., 255., 0., 0.,
          0., 0., 0., 0., 2., 2., 2., 0., 0., 0., 0., 0., 0., 0., 0., 0.,
          0., 0., 0., 0., 0., 0., 0., 0., 0., 0., 0., 0., 0., 0., 0., 0.,
          0., 0., 0., 0., 0., 0., 0., 0., 0., 0., 0., 0., 0., 0., 0., 0.,
          0., 0., 0., 0., 1., 1., 1., 0., 0., 0., 0., 0., 0., 0., 0., 0.,
          0., 0., 0., 1., 1., 1., 0., 0., 0., 1., 1., 1., 0., 0., 0.,
          255., 255., 255., 1., 1., 1., 0., 0., 0., 0., 0., 0., 0., 0.,
          0., 0., 0., 0., 0., 0., 0., 0., 0., 0., 0., 0., 0., 0., 0., 0.,
          0., 0., 0., 0., 0., 0., 0., 0., 0., 0., 0., 0., 0., 0., 0., 0.,
          0., 0., 2., 2., 2., 0., 0., 0., 0., 0., 0., 2., 2., 2., 0., 0.,
          0., 2., 2., 2., 1., 1., 1., 0., 0., 0., 0., 0., 0., 0., 0., 0.,
          255., 255., 255., 255., 255., 255., 252., 252., 252., 0., 0.,
          0., 0., 0., 0., 1., 1., 1., 0., 0., 0., 0., 0., 0., 0., 0., 0.,
          0., 0., 0., 0., 0., 0., 0., 0., 0., 0., 0., 0., 0., 0., 0., 0.,
          0., 0., 0., 0., 0., 0., 0., 0., 0., 0., 0., 0., 0., 0., 3., 3.,
          3., 2., 2., 2., 0., 0., 0., 0., 0., 0., 0., 0., 0., 0., 0., 0.,
          255., 255., 255., 255., 255., 255., 255., 255., 255., 255.,
          255., 255., 254., 254., 254., 255., 255., 255., 255., 255.,
          255., 0., 0., 0., 0., 0., 0., 0., 0., 0., 0., 0., 0., 0., 0.,
          0., 0., 0., 0., 0., 0., 0., 0., 0., 0., 0., 0., 0., 0., 0., 0.,
          0., 0., 0., 0., 0., 0., 0., 0., 0., 0., 0., 0., 1., 1., 1., 0.,
          0., 0., 1., 1., 1., 0., 0., 0., 2., 2., 2., 0., 0., 0., 0., 0.,
          0., 255., 255., 255., 254., 254., 254., 254., 254., 254., 255.,
          255., 255., 0., 0., 0., 252., 252., 252., 255., 255., 255., 0.,
          0., 0., 3., 3., 3., 0., 0., 0., 0., 0., 0., 0., 0., 0., 0., 0.,
          0., 0., 0., 0., 0., 0., 0., 0., 0., 0., 0., 0., 0., 0., 0., 0.,
          0., 0., 0., 0., 0., 0., 0., 0., 0., 0., 0., 0., 0., 0., 0., 0.,
          0., 0., 4., 4., 4., 0., 0., 0., 0., 0., 0., 0., 0., 0., 0., 0.,
          0., 0., 0., 0., 1., 1., 1., 0., 0., 0., 2., 2., 2., 254., 254.,
          254., 255., 255., 255., 0., 0., 0., 0., 0., 0., 0., 0., 0., 0.,
          0., 0., 0., 0., 0., 0., 0., 0., 0., 0., 0., 0., 0., 0., 0., 0.,
          0., 0., 0., 0., 0., 0., 0., 0., 0., 0., 0., 0., 0., 0., 0., 0.,
          3., 3., 3., 0., 0., 0., 1., 1., 1., 0., 0., 0., 0., 0., 0., 4.,
          4., 4., 1., 1., 1., 0., 0., 0., 0., 0., 0., 0., 0., 0., 3., 3.,
          3., 0., 0., 0., 255., 255., 255., 255., 255., 255., 0., 0., 0.,
          0., 0., 0., 0., 0., 0., 0., 0., 0., 0., 0., 0., 0., 0., 0., 0.,
          0., 0., 0., 0., 0., 0., 0., 0., 0., 0., 0., 0., 0., 0., 0., 0.,
          0., 0., 0., 0., 0., 0., 0., 0., 0., 0., 4., 4., 4., 0., 0., 0.,
          2., 2., 2., 0., 0., 0., 0., 0., 0., 0., 0., 0., 0., 0., 0., 1.,
          1., 1., 0., 0., 0., 0., 0., 0., 0., 0., 0., 255., 255., 255.,
          0., 0., 0., 0., 0., 0., 2., 2., 2., 0., 0., 0., 0., 0., 0., 0.,
          0., 0., 0., 0., 0., 0., 0., 0., 0., 0., 0., 0., 0., 0., 0., 0.,
          0., 0., 0., 0., 0., 0., 0., 0., 0., 0., 0., 0., 0., 0., 0., 0.,
          2., 2., 2., 0., 0., 0., 0., 0., 0., 2., 2., 2., 0., 0., 0., 1.,
          1., 1., 0., 0., 0., 0., 0., 0., 2., 2., 2., 0., 0., 0., 255.,
          255., 255., 255., 255., 255., 1., 1., 1., 3., 3., 3., 0., 0.,
          0., 0., 0., 0., 0., 0., 0., 0., 0., 0., 0., 0., 0., 0., 0., 0.,
          0., 0., 0., 0., 0., 0., 0., 0., 0., 0., 0., 0., 0., 0., 0., 0.,
          0., 0., 0., 0., 0., 1., 1., 1., 0., 0., 0., 1., 1., 1., 0., 0.,
          0., 1., 1., 1., 1., 1., 1., 0., 0., 0., 0., 0., 0., 255., 255.,
          255., 251., 251., 251., 255., 255., 255., 0., 0., 0., 0., 0.,
          0., 0., 0., 0., 0., 0., 0., 1., 1., 1., 0., 0., 0., 0., 0., 0.,
          0., 0., 0., 0., 0., 0., 0., 0., 0., 0., 0., 0., 0., 0., 0., 0.,
          0., 0., 0., 0., 0., 0., 0., 0., 0., 0., 0., 0., 0., 0., 0., 0.,
          0., 1., 1., 1., 1., 1., 1., 0., 0., 0., 0., 0., 0., 255., 255.,
          255., 255., 255., 255., 253., 253., 253., 255., 255., 255., 1.,
          1., 1., 0., 0., 0., 0., 0., 0., 2., 2., 2., 0., 0., 0., 0., 0.,
          0., 1., 1., 1., 0., 0., 0., 0., 0., 0., 0., 0., 0., 0., 0., 0.,
          0., 0., 0., 0., 0., 0., 0., 0., 0., 0., 0., 0., 0., 0., 0., 0.,
          0., 0., 0., 0., 0., 0., 0., 0., 0., 0., 0., 0., 0., 0., 0., 0.,
          0., 4., 4., 4., 2., 2., 2., 253., 253., 253., 0., 0., 0., 3.,
          3., 3., 1., 1., 1., 1., 1., 1., 0., 0., 0., 0., 0., 0., 0., 0.,
          0., 1., 1., 1., 3., 3., 3., 0., 0., 0., 0., 0., 0., 0., 0., 0.,
          0., 0., 0., 0., 0., 0., 0., 0., 0., 0., 0., 0., 0., 0., 0., 0.,
          0., 0., 0., 0., 0., 0., 0., 0., 0., 0., 0., 0., 0., 0., 0., 0.,
          0., 5., 5., 5., 0., 0., 0., 0., 0., 0., 0., 0., 0., 2., 2., 2.,
          0., 0., 0., 0., 0., 0., 0., 0., 0., 0., 0., 0., 0., 0., 0., 4.,
          4., 4., 0., 0., 0., 0., 0., 0., 2., 2., 2., 0., 0., 0., 0., 0.,
          0., 0., 0., 0., 0., 0., 0., 0., 0., 0., 0., 0., 0., 0., 0., 0.,
          0., 0., 0., 0., 0., 0., 0., 0., 0., 0., 0., 0., 0., 0., 0., 0.,
          0., 0., 0., 0., 0., 0., 0., 0., 3., 3., 3., 3., 3., 3., 2., 2.,
          2., 2., 2., 2., 0., 0., 0., 0., 0., 0., 1., 1., 1., 1., 1., 1.,
          2., 2., 2., 0., 0., 0., 1., 1., 1., 0., 0., 0., 0., 0., 0., 0.,
          0., 0., 0., 0., 0., 0., 0., 0., 0., 0., 0., 0., 0., 0., 0., 0.,
          0., 0., 0., 0., 0., 0., 0., 0., 0., 0., 0., 0., 0., 0., 0., 0.,
          0., 0., 0., 0., 0., 0., 2., 2., 2., 0., 0., 0., 1., 1., 1., 1.,
          1., 1., 0., 0., 0., 1., 1., 1., 1., 1., 1., 2., 2., 2., 0., 0.,
          0., 0., 0., 0., 0., 0., 0., 2., 2., 2., 0., 0., 0., 0., 0., 0.,
          0., 0., 0., 2., 2., 2., 0., 0., 0., 0., 0., 0., 0., 0., 0., 0.,
          0., 0., 0., 0., 0., 0., 0., 0., 0., 0., 0., 0., 0., 0., 0., 0.,
          0., 0., 0., 0., 0., 0., 0., 0., 0., 0., 0., 0., 0., 1., 1., 1.,
          0., 0., 0., 0., 0., 0., 4., 4., 4., 0., 0., 0., 0., 0., 0., 0.,
          0., 0., 2., 2., 2., 1., 1., 1., 1., 1., 1., 0., 0., 0., 0., 0.,
          0., 1., 1., 1., 0., 0., 0., 2., 2., 2., 0., 0., 0., 0., 0., 0.,
          0., 0., 0., 0., 0., 0., 0., 0., 0., 0., 0., 0., 0., 0., 0., 0.,
          0., 0., 0., 0., 0., 0., 0., 0., 0., 0., 0., 0., 0., 0., 0., 0.,
          0., 2., 2., 2., 0., 0., 0., 2., 2., 2., 0., 0., 0., 1., 1., 1.,
          0., 0., 0., 0., 0., 0., 0., 0., 0., 2., 2., 2., 0., 0., 0., 0.,
          0., 0., 3., 3., 3., 0., 0., 0., 5., 5., 5., 0., 0., 0., 0., 0.,
          0., 0., 0., 0., 0., 0., 0., 0., 0., 0., 0., 0., 0., 0., 0., 0.,
          0., 0., 0., 0., 0., 0., 0., 0., 0., 0., 0., 0., 0., 0., 0., 0.,
          0., 0., 0., 0., 0., 2., 2., 2., 0., 0., 0., 0., 0., 0., 0., 0.,
          0., 1., 1., 1., 0., 0., 0., 2., 2., 2., 0., 0., 0., 3., 3., 3.,
          0., 0., 0., 0., 0., 0., 0., 0., 0., 1., 1., 1., 0., 0., 0., 1.,
          1., 1., 0., 0., 0., 0., 0., 0., 0., 0., 0., 0., 0., 0., 0., 0.,
          0., 0., 0., 0., 0., 0., 0., 0., 0., 0., 0., 0., 0., 0., 0., 0.,
          0., 0., 0., 0., 0., 0., 0., 0., 0., 0., 0., 0., 0., 0., 0., 0.,
          0., 0., 0., 0., 0., 0., 0., 0., 0., 0., 0., 0., 0., 0., 0., 0.,
          0., 0., 0., 0., 0., 0., 0., 0., 0., 0., 0., 0., 0., 0., 0., 0.,
